
#include "stdafx.h"
#include "Array_bp.h"

float weight1_S[NODE_INPUT*NODE_HIDE] = {
		0.332011,	0.575854,	-0.669546,	0.114841,	-0.903806,	-0.289712,	-0.490768,	-0.757744,	-0.507859,	0.879208,	-0.142003,	-0.147374,	-0.976318,	-0.799005,	-0.868709,	0.350810,	-0.530931,	-0.638539,	0.255365,	0.275796,	0.657826,	-0.466964,	0.596057,	0.081942,	-0.623951,	-0.090854,	-0.949034,	0.440291,	-0.286355,	0.912778,	-0.770379,	0.621265,	0.164708,	-0.855770,	0.081820,	0.522446,	-2.787212,	0.129673,	-0.141453,	-0.096713,	0.788690,	-0.067843,	-0.472457,	-0.610889,	3983.998779,	0.689566,	0.411054,	0.807489,	0.617969,	0.139622,	-0.141270,	-0.581652,	0.880123,	0.213934,	-0.231239,	-0.397198,	0.102817,	0.642201,	-0.231483,	0.569384,	-0.612354,	0.988037,	-0.131748,	-0.356182,	-0.312052,	0.582446,	0.399701,	-0.297037,	-0.242775,	0.013581,	0.052522,	0.390105,	0.976562,	-0.122471,	-0.178991,	-0.848079,	-0.626698,	-0.028230,	-0.327189,	-0.771844,	0.144139,	0.977172,	-0.246254,	0.541307,	0.993774,	-0.309305,	0.939757,	-0.335978,	-0.397015,	-0.128758,	0.548570,	-0.141453,	-0.461470,	-0.238502,	0.025239,	-0.728629,	-0.084017,	0.347819,	0.411603,	-0.225868,	-0.870602,	-0.578906,	0.413984,	0.010224,	-0.039460,	-0.499191,	0.882396,	-0.788324,	0.378338,	0.684927,	0.504990,	-0.652211,	-0.656911,	0.487960,	0.555040,	0.168310,	-0.073153,	-0.270180,	-0.537034,	0.703665,	-0.937376,	0.538316,	-0.934568,	-0.215247,	0.235206,	-0.473251,	-0.679739,	-0.855037,	0.425336,	0.210547,	-0.692618,	-0.333842,	-0.378826,	-0.276162,	-0.671865,	0.332194,	0.207984,	-0.099765,	-0.086032,	0.451827,	0.549548,	-0.221229,	0.558397,	0.713797,	0.072665,	-0.401837,	-0.016449,	-0.364055,	0.170263,	-0.657888,	0.754997,	0.972106,	0.230323,	-0.102268,	0.056062,	0.637684,	-0.891171,	-0.110263,	-0.564562,	0.718253,	-0.644826,	0.253029,	-0.660390,	-0.878353,	0.504501,	-0.394208,	-0.757256,	0.437849,	0.748711,	0.486435,	-0.812799,	0.568041,	-0.700858,	-0.484481,	-0.453536,	0.685904,	0.753288,	-0.453352,	0.823176,	-0.906919,	-0.222938,	0.867977,	0.294778,	0.532334,	-0.582934,	-0.483566,	-0.680410,	-0.480697,	-0.646535,	-0.231117,	0.115452,	-0.742729,	-0.592700,	0.870357,	-0.176855,	0.695853,	0.006215,	-0.936399,	0.668081,	-0.703482,	-0.825190,	0.982543,	0.031587,	0.068697,	-0.397320,	-0.530198,	-0.754875,	0.436506,	0.367901,	-0.115329,	0.920042,	-0.498825,	0.363140,	-0.039885,	-0.376202,	-0.740165,	-0.503647,	-0.726188,	-0.282083,	0.344157,	-0.274697,	-0.604846,	-0.832636,	-0.159276,	-0.154271,	0.770012,	-0.864559,	-0.243690,	0.346110,	-0.593616,	0.176916,	-0.310038,	-0.358745,	-0.575915,	0.840022,	0.274514,	-0.002411,	0.528916,	-0.507309,	0.950560,	0.461837,	0.475997,	-0.817255,	0.634144,	-0.893490,	-0.416120,	0.346171,	0.842769,	-0.095737,	-0.638295,	-0.824580,	-0.160680,	0.543321,	0.311991,	0.460860,	-0.640370,	0.497238,	0.971984,	0.716544,	0.483383,	-0.339152,	-0.744316,	0.404401,	0.212378,	0.865291,	0.159459,	-0.931353,	-0.681082,	0.583972,	0.892514,	0.190100,	-0.974731,	-0.856929,	-0.503220,	-0.417341,	-0.921628,	0.748161,	0.017182,	0.128269,	0.781426,	0.639393,	0.284585,	0.678823,	-0.455672,	-0.311258,	-0.624683,	-0.072054,	0.517747,	-0.249123,	0.808893,	-0.931333,	-0.130406,	0.080111,	0.545640,	0.048433,	-0.729484,	0.126682,	-0.150914,	-0.765862,	0.147618,	-0.975553,	0.072726,	-0.699332,	-0.729362,	-0.917966,	-0.564013,	-0.846614,	0.232948,	-0.408917,	0.850398,	0.699271,	0.388836,	0.262612,	0.859310,	0.277505,	-0.188696,	0.605518,	0.753777,	-0.436567,	-0.168981,	0.558336,	-0.074374,	-0.243019,	-0.279824,	0.688223,	0.522752,	-0.130894,	-0.916379,	-0.732353,	-0.533799,	0.918516,	0.518967,	0.544053,	0.894467,	0.850337,	0.109043,	-0.488388,	-0.905271,	-0.008881,	0.309061,	-0.498886,	0.986145,	-0.149571,	0.790582,	-0.102390,	0.215247,	-0.916807,	-0.195288,	0.299905,	-0.071993,	-0.575732,	-0.371868,	0.433821,	0.279824,	-0.591235,	0.652882,	-0.779240,	-0.253945,	0.689383,	-0.316568,	0.693167,	0.296487,	0.764214,	-0.996338,	724.340820,	-0.505295,	0.927366,	-0.224830,	0.227149,	-0.413129,	-0.745537,	0.330790,	-0.093539,	0.639946,	-0.564074,	0.924558,	-0.769707,	-0.205664,	-0.729728,	-0.498398,	-0.659291,	-0.308267,	-0.369732,	0.050264,	-0.546068,	0.141453,	-0.285928,	0.097751,	0.621570,	0.087252,	-0.605701,	0.918174,	-0.629688,	-0.062044,	0.476852,	0.985168,	-0.466353,	-0.676687,	-0.317301,	0.316630,	-0.413373,	0.338664,	-0.835261,	0.134495,	-0.202185,	-0.660451,	-0.627735,	-0.458785,	0.509384,	-0.649098,	0.075594,	-0.308390,	-0.140538,	0.150853,	0.363445,	-0.949156,	0.257912,	0.093051,	-0.574755,	0.297525,	-0.071810,	0.730399,	0.931761,	0.432661,	0.828974,	0.301431,	0.824816,	0.659169,	-0.733696,	-0.857540,	-0.670217,	-0.406964,	0.510483,	-0.911252,	-0.994385,	0.369182,	-0.271584,	-0.074679,	-0.361614,	-0.796319,	0.545763,	0.952025,	-0.201575,	-0.023347,	-0.450056,	0.723746,	-0.131626,	0.396283,	0.047334,	-0.970458,	0.357341,	0.307413,	-0.613330,	0.172033,	0.311930,	-0.292032,	-0.838618,	-0.390118,	-0.362041,	-0.966063,	0.603642,	-0.973144,	0.144444,	-0.723075,	0.481552,	-0.111362,	-0.876766,	0.496200,	-0.186010,	0.550096,	0.275857,	0.287393,	0.713004,	0.976867,	-0.199438,	0.771477,	-0.331584,	0.141392,	0.452315,	-0.335124,	0.586413,	0.158666,	-0.612293,	-0.004975,	-0.106113,	0.221290,	0.607654,	0.022004,	-0.977599,	0.399091,	-0.190039,	-0.069613,	0.583056,	0.363750,	0.465072,	0.853145,	-0.454756,	-0.898129,	1.014804,	0.789483,	-0.267251,	0.679189,	-0.611377,	0.980285,	0.947081,	0.117405,	0.506333,	-0.697134,	-0.966247,	0.447310,	0.484848,	0.247963,	0.201758,	-0.999817,	0.456343,	0.040559,	-0.394402,	-0.000336,	0.954100,	0.468856,	-0.370708,	-0.482894,	-0.703787,	-0.018220,	-0.195349,	-0.147313,	0.692495,	-0.381024,	0.309610,	-0.595141,	0.886105,	0.335429,	0.725456,	-0.909604,	-0.856807,	-0.717215,	-0.253395,	-0.621937,	-0.597400,	-0.389386,	0.027375,	0.997436,	0.398053,	-0.650990,	-0.217444,	-0.613208,	0.565600,	-0.063265,	-0.544908,	-0.058687,	0.549059,	-0.036725,	0.761834,	0.124607,	-0.885250,	0.633900,	0.431196,	-0.494003,	-0.709891,	0.684317,	-0.055147,	-0.213660,	0.536180,	-0.966979,	-0.404767,	-0.125828,	-0.231422,	-0.991943,	0.172643,	0.075716,	-0.961425,	0.546678,	0.593066,	0.460189,	0.686575,	-0.015778,	0.780572,	-0.536607,	-0.219459,	-0.011322,	0.115513,	-0.207190,	0.652760,	-0.799249,	0.762261,	-0.305216,	-0.653737,	0.144993,	0.187658,	0.648427,	0.783929,	0.971557,	0.183996,	-0.452498,	0.472823,	-0.406293,	0.707999,	0.433210,	-0.443709,	-0.218482,	-0.151341,	-0.160253,	-0.973754,	-0.224464,	0.237220,	0.816523,	-0.092380,	0.982238,	-0.790277,	-0.312357,	-0.771538,	-0.685965,	-0.962462,	0.613269,	0.588000,	0.736808,	0.535386,	0.013214,	-0.866390,	-0.414106,	0.361703,	-0.082919,	-0.237892,	-0.784478,	-0.677602,	0.302286,	0.354656,	-0.458663,	-0.008271,	-0.517075,	0.860408,	-0.958861,	0.960753,	0.612171,	0.039827,	-0.225623,	0.028596,	-0.640126,	0.680715,	0.984069,	-0.353130,	0.829463,	-0.900510,	-0.156896,	0.930723,	0.774224,	-0.259987,	0.907651,	-0.451521,	-0.821955,	0.682546,	0.840022,	-0.196692,	-0.738273,	0.875668,	-0.036409,	0.218116,	-0.023225,	0.902911,	-0.787591,	0.937376,	-0.948912,	0.097263,	0.037446,	0.257424,	0.647206,	-0.183935,	-0.167333,	0.598682,	0.696341,	-0.311930,	0.443403,	-0.768853,	-0.028596,	0.645985,	0.318400,	0.066780,	-0.040315,	-0.443464,	-0.129978,	-0.168615,	-0.400006,	-0.739006,	0.603015,	1.287435,	-0.055452,	0.838008,	-0.424360,	0.291360,	0.809870,	-0.098727,	-0.244179,	0.597949,	0.478135,	-0.254006,	-0.166662,	-0.950377,	0.511765,	-0.845637,	0.052461,	0.141148,	0.744255,	-0.325724,	-0.373760,	-0.335856,	0.508469,	0.182775,	0.295206,	0.280923,	-0.833613,	-0.452193,	-0.406714,	-0.023652,	0.002167,	-0.800348,	0.383282,	-0.297586,	0.540269,	0.424848,	0.224097,	-0.474837,	-0.647267,	0.195898,	-0.867061,	-0.410688,	0.416730,	0.348064,	-0.695669,	-0.788995,	-0.914670,	-0.083407,	-0.651662,	0.412519,	0.734611,	-0.553575,	0.611377,	-0.789911,	0.148106,	-0.912595,	0.141209,	0.969359,	0.703360,	-0.713370,	-0.140904,	-0.861812,	-0.579882,	-0.108554,	0.501572,	-0.327433,	0.936094,	0.474777,	-0.106357,	0.464888,	0.469283,	-0.304422,	0.117832,
		0.089633,	0.832392,	0.507492,	-0.861507,	-0.822443,	-0.440168,	-0.973083,	-0.552660,	0.731498,	-0.789239,	-0.125767,	-0.710257,	0.695608,	0.910520,	-0.200110,	-0.963500,	-0.908261,	0.192114,	0.408307,	0.261757,	-0.965880,	-0.797845,	-0.207923,	0.091159,	-0.064241,	0.331706,	-0.111545,	0.381817,	0.218482,	-0.664357,	-0.628651,	0.296793,	-0.160314,	-0.997253,	0.890805,	-0.163732,	-0.052095,	-0.560472,	0.472335,	0.889035,	-0.020478,	0.028901,	-0.110202,	-0.634877,	-0.490158,	-0.871944,	-0.177465,	0.973876,	-0.829829,	0.566759,	0.610462,	0.207862,	-0.055940,	-0.991211,	0.419538,	-0.902158,	-0.845454,	-0.760674,	-0.370525,	-0.701590,	0.456343,	-0.559374,	-0.742912,	0.068758,	0.142674,	-0.481674,	0.226905,	-0.289407,	-0.917112,	0.541429,	-0.698050,	-0.974609,	0.600452,	0.357280,	0.487716,	0.353557,	-0.395489,	-0.554186,	-0.279641,	0.758354,	-0.711004,	0.073946,	-0.346599,	0.916807,	0.710135,	0.813288,	0.354411,	0.280068,	-0.407718,	-0.516282,	0.723624,	0.065767,	-0.588672,	0.585559,	0.448897,	0.645253,	-0.135716,	0.281899,	-0.692618,	0.887082,	0.706290,	0.994873,	-0.372234,	0.021088,	0.600574,	0.676931,	0.725150,	-0.416425,	-0.506272,	0.821345,	-0.879269,	0.007721,	-0.904538,	0.272683,	-0.640065,	-0.579760,	0.737236,	0.901181,	-0.760308,	-0.791559,	0.922056,	0.202002,	0.259194,	-0.081210,	-0.121128,	0.884152,	-0.894650,	0.050020,	-0.567248,	0.508774,	0.986267,	-0.696463,	-0.496139,	-0.758354,	0.624012,	0.853084,	-0.451277,	0.781243,	-0.278359,	0.196448,	0.254189,	0.524583,	0.713736,	-0.847896,	-0.201270,	0.034639,	-0.384747,	0.562426,	-0.007477,	-0.129429,	-0.218970,	0.266396,	0.608387,	-0.156102,	-0.612842,	-0.095187,	-0.783074,	0.762688,	0.447859,	-0.880306,	0.838862,	0.726798,	0.179907,	0.710624,	0.724418,	0.036409,	0.527512,	-0.689138,	0.576342,	-0.223731,	0.659474,	-0.854366,	-0.475021,	0.138035,	0.251625,	-0.565783,	0.170934,	-0.456221,	0.367107,	-0.999939,	-0.994079,	0.632313,	-0.253456,	0.649709,	-0.474349,	0.171667,	-0.679067,	0.883785,	-0.654103,	0.959899,	0.760002,	-0.496933,	-0.364299,	0.776238,	-0.132481,	0.671255,	0.178808,	0.445845,	0.637623,	-0.003327,	0.377178,	0.080416,	0.783196,	-0.802667,	-0.492172,	-0.443159,	0.549486,	0.909299,	0.546434,	0.296731,	-0.374249,	-0.797540,	0.869747,	0.409345,	-0.033296,	0.366619,	0.149144,	0.259987,	-0.663686,	-0.472091,	0.748711,	0.527146,	-0.611994,	-0.338359,	0.939146,	-0.190039,	-0.909543,	0.560900,	0.240638,	-0.150609,	-0.683950,	0.324931,	-0.792413,	-0.575365,	-0.600147,	0.930174,	0.966918,	0.988464,	-0.515366,	0.444868,	0.822227,	-0.897397,	-0.535997,	-0.548631,	-0.761406,	0.737419,	0.334574,	0.237953,	0.630662,	0.496017,	0.771783,	0.322184,	0.470687,	0.828120,	0.740410,	0.869320,	-0.572741,	0.293374,	0.952818,	-0.432478,	-0.154088,	-0.061006,	-0.012726,	0.522752,	0.886532,	0.852473,	-0.120823,	0.735221,	-0.771233,	0.952879,	-0.002777,	-0.278848,	0.457991,	0.082980,	0.017060,	-0.159032,	0.329875,	-0.535386,	-0.194250,	-0.102939,	0.227271,	0.579577,	-0.971984,	-0.436140,	0.119846,	-0.460921,	0.288614,	-0.787591,	-0.659108,	0.004242,	0.621021,	0.691702,	0.493149,	0.719047,	-0.862056,	-0.370464,	0.795221,	0.719779,	-0.346721,	0.816095,	0.182714,	0.282632,	0.089450,	-0.769097,	0.475387,	0.671987,	-0.517319,	0.277993,	0.923398,	0.751640,	0.398297,	-0.210303,	0.444685,	-0.477279,	-0.431379,	-0.637074,	-0.133518,	0.648915,	0.566149,	-0.409955,	0.483261,	0.032929,	-0.675893,	0.746391,	0.243446,	0.506394,	0.317545,	-0.502487,	-0.122410,	0.695059,	0.216834,	-0.811090,	0.280313,	0.122776,	0.826411,	0.279275,	-0.540941,	-0.383953,	0.121128,	0.481735,	0.361370,	-0.928404,	-0.807184,	-0.825861,	-0.106418,	-0.349712,	-0.080599,	-0.358318,	0.443587,	0.458785,	-0.830683,	-0.286477,	0.220069,	0.782220,	0.353618,	0.357036,	-0.279702,	-0.069613,	0.137730,	0.791253,	0.639943,	-0.240822,	-0.873165,	-0.317728,	0.535752,	-0.069185,	0.335490,	0.983886,	-0.444014,	0.974425,	0.255165,	-0.016205,	0.548692,	-0.789850,	0.332316,	0.121250,	0.861629,	0.599475,	-0.331339,	0.134983,	-0.853511,	-0.417585,	0.757019,	0.106845,	-0.520554,	-0.032502,	-0.936583,	-0.038301,	0.109836,	-0.066988,	0.272927,	0.987610,	-0.848933,	0.205725,	0.003082,	-0.062654,	0.525742,	-0.523301,	-0.193396,	0.274880,	0.475347,	0.118503,	0.270058,	0.128574,	-0.047517,	0.265481,	-0.977660,	-0.485702,	-0.801202,	-0.680166,	0.467391,	0.390240,	-0.166723,	0.946226,	-0.950255,	0.106296,	0.752312,	0.616565,	0.870296,	-0.189184,	-0.839595,	-0.231361,	-0.540086,	0.376263,	-0.957518,	-0.359416,	0.527573,	-0.592273,	0.389325,	0.843074,	-0.507736,	-0.104953,	-0.510117,	-0.267434,	0.613514,	0.072788,	-0.397381,	-0.351848,	-0.468917,	-0.950926,	0.317850,	0.073824,	0.028840,	-0.232765,	0.924192,	-0.211097,	0.831904,	-0.139073,	0.091647,	-0.930296,	-0.747124,	-0.032624,	-0.816828,	-0.995849,	-0.501999,	0.059297,	-0.492111,	0.982299,	0.444990,	-0.640553,	0.828303,	0.424848,	0.707450,	0.399518,	-0.566698,	-0.186926,	-0.204260,	0.785638,	-0.908628,	-0.918638,	-0.810968,	-0.766045,	-0.806269,	0.435957,	0.128941,	-0.561632,	-0.597827,	-0.338298,	-0.050630,	0.332133,	-0.886654,	0.979858,	-0.246986,	0.306864,	-0.948363,	-0.481002,	-0.751030,	-0.048860,	-0.696280,	0.461715,	-0.437544,	0.871273,	-0.893368,	0.929624,	-0.170568,	-0.844050,	0.702872,	-0.330851,	0.389630,	-0.951231,	0.573595,	0.600757,	0.389203,	-0.610340,	0.364177,	-0.706534,	0.606189,	0.388592,	0.812677,	0.428388,	-0.689138,	-0.706168,	0.995605,	-0.687735,	-0.025483,	0.517319,	0.201941,	-0.495041,	0.637318,	0.778985,	0.748833,	-0.377728,	-0.250404,	0.834224,	-0.948790,	-0.622669,	0.298257,	0.344584,	-0.742058,	-0.077609,	-0.969665,	-0.543443,	0.766533,	0.554491,	0.587268,	-0.350505,	-0.070833,	0.846187,	-0.638722,	-0.584887,	-0.736442,	0.265297,	0.888199,	-0.667531,	0.479110,	0.344829,	-0.416120,	0.099155,	0.632435,	-0.533494,	0.649586,	0.082308,	-0.275613,	-0.679922,	0.938597,	-0.048189,	-0.948912,	-0.899472,	0.616443,	0.958007,	0.620300,	0.506882,	0.415693,	0.415754,	0.949889,	-0.396893,	0.301187,	0.959288,	-0.410526,	0.606189,	0.357708,	-0.872127,	-0.574694,	-0.338908,	-0.286660,	-0.153050,	-0.132908,	-0.332193,	0.310221,	0.365398,	0.904233,	0.220557,	-0.664724,	0.213111,	-0.325541,	-0.276528,	-0.876095,	0.740349,	0.057894,	-0.255654,	0.348735,	0.801386,	-0.124607,	0.669118,	-0.694144,	0.145485,	0.966063,	0.719901,	-0.888424,	-0.922727,	0.455916,	-0.601856,	-0.378704,	-0.050691,	0.530747,	-0.582873,	-0.115818,	-0.951292,	-0.974731,	0.184118,	-0.055025,	0.441572,	0.140904,	0.896481,	-0.193823,	0.336039,	-0.394696,	0.313456,	0.362896,	-0.471725,	-0.414167,	-0.733879,	0.122776,	0.492477,	-0.330912,	0.968322,	0.523667,	0.677541,	-0.780328,	-0.809626,	-0.338480,	0.574389,	-0.569750,	-0.640553,	-0.759575,	0.114170,	0.375347,	0.647206,	0.558885,	-0.038301,	-0.618091,	0.109043,	0.342143,	-0.734428,	0.028474,	0.936155,	0.236549,	0.428083,	0.085788,	-0.116611,	0.775017,	0.456893,	-0.288430,	-0.064058,	-0.371685,	-0.538621,	0.211341,	-0.724113,	0.954344,	-0.143834,	0.678274,	0.612781,	-0.343486,	0.833796,	0.824641,	-0.060335,	-0.633900,	-0.330180,	-0.683035,	0.777520,	-0.041475,	0.422285,	-0.072298,	0.970458,	-0.581774,	-0.412030,	0.815424,	0.093905,	-0.136753,	-0.721183,	-0.752800,	0.539415,	0.542467,	-0.520371,	-0.925779,	0.336406,	-0.382000,	-0.049165,	-0.726066,	0.776116,	-0.454390,	-0.661916,	0.871456,	0.897763,	-0.135228,	0.051363,	0.551622,	-0.098972,	0.211524,	0.476241,	0.276101,	-0.453169,	-0.633146,	-0.920652,	-0.784173,	-0.391461,	-0.847774,	-0.028230,	-0.687185,	0.436811,	0.985656,	0.490341,	0.783502,	-0.300211,	-0.090182,	0.362713,	0.875546,	-0.637562,	-0.093356,	-0.984008,	0.191281,	-0.034577,	-0.692251,	0.592578,	-0.108554,	0.268349,	0.116733,	-0.764641,	0.238783,	-0.681814,	0.052644,	0.205603,	0.735588,	-0.993591,	-0.869869,	-0.605518,	-0.637928,	0.176305,	-0.414289,	0.792352,	0.894284,	0.344096,	0.965453,	0.477096,	-0.049104,	0.095675,	-0.815729,	0.684683,	0.879574,	0.221595,	-0.628346,	0.524583,	-0.139012,	0.652943,	-0.686453,	0.901321,
		0.393231,	-0.739738,	-0.694571,	0.206641,	0.466170,	-0.421491,	-0.772149,	0.342937,	0.740837,	-0.479904,	0.656972,	-0.358501,	0.044649,	0.139012,	0.822626,	0.237831,	-0.504318,	0.507736,	0.226966,	0.466170,	-0.431684,	-0.229652,	0.735527,	-0.163305,	-0.587023,	0.433882,	-0.046907,	-0.843379,	0.741874,	-0.039705,	0.698233,	-0.641469,	-0.406049,	0.721732,	-0.613452,	-0.401532,	0.291482,	-0.618458,	0.138096,	0.185583,	0.899777,	-0.235878,	0.418622,	0.906919,	0.504257,	0.274514,	-0.970580,	0.308573,	-0.384320,	-0.067904,	0.257179,	0.497177,	0.017182,	0.079806,	0.995544,	-0.977660,	-0.634999,	-0.168187,	0.653371,	0.405011,	0.856075,	0.321512,	0.659536,	0.871090,	-0.726554,	-0.186804,	-0.621937,	0.856685,	-0.275246,	0.739677,	-0.753410,	0.843379,	0.382855,	0.727287,	-0.051302,	-0.910581,	-0.455916,	0.673147,	0.435285,	0.817682,	0.315287,	-0.065951,	-0.394818,	-0.577929,	-0.758843,	-0.307413,	0.459029,	-0.742180,	0.187353,	0.560472,	-0.462691,	0.574694,	-0.211951,	-0.516831,	0.457686,	0.158116,	-0.225990,	0.008026,	-0.639332,	0.239479,	0.491073,	0.977416,	-0.920713,	-0.761406,	0.922910,	-0.289224,	-0.156590,	0.900754,	-0.470016,	0.737663,	-0.668508,	-0.609485,	-0.782037,	0.143040,	-0.116977,	0.905515,	0.746757,	0.589587,	-0.316935,	-0.628346,	-0.105991,	-0.922788,	-0.267495,	0.783563,	0.684752,	0.504440,	-0.584521,	-0.248634,	0.000397,	-0.908322,	0.477279,	0.817743,	-0.121921,	0.731986,	0.224647,	0.106235,	0.815363,	0.328410,	-0.238502,	-0.135350,	0.390057,	-0.816584,	0.072237,	-0.534776,	0.509873,	0.501022,	-0.235145,	-0.575549,	-0.397259,	0.064302,	-0.712638,	0.004974,	-0.938292,	0.152318,	-0.571215,	0.961608,	0.255898,	-0.243202,	0.918210,	-0.004906,	-0.580126,	-0.837581,	0.933531,	0.474777,	0.735893,	-0.046785,	-0.666555,	-0.006378,	0.918210,	0.506516,	0.424177,	0.317606,	-0.384930,	0.038423,	-0.926145,	0.292154,	0.939451,	-0.737785,	0.987548,	0.268532,	0.440474,	0.722648,	-0.045991,	-0.388653,	0.829768,	0.868099,	-0.121311,	-0.148412,	0.773186,	0.924375,	0.413556,	-0.954039,	0.062349,	0.630909,	-0.002533,	-0.093661,	-0.522996,	-0.096774,	-0.880917,	-0.739433,	0.651723,	0.483749,	-0.384991,	-0.591540,	0.258217,	0.642750,	0.815546,	0.934446,	-0.182287,	0.993652,	0.350383,	-0.460311,	-0.546190,	0.483016,	0.427656,	0.457015,	0.899594,	0.619617,	-0.602893,	-0.991333,	0.071139,	-0.996338,	-0.588183,	0.873409,	0.519944,	0.220191,	-0.000336,	0.620838,	0.076632,	-0.843196,	0.357524,	0.079501,	-0.001068,	0.811457,	0.180334,	-0.901303,	0.935301,	-0.350627,	-0.161412,	0.267373,	-0.981750,	0.574694,	-0.284768,	0.152623,	0.399091,	0.576525,	-0.484664,	0.620472,	-0.464522,	-0.885617,	-0.638539,	0.800653,	-0.453230,	0.303995,	-0.514267,	-0.741081,	-0.052522,	0.965941,	0.333232,	0.938963,	0.072359,	-0.398907,	-0.113010,	0.435285,	-0.494858,	0.353374,	0.028718,	0.162267,	-0.175634,	-0.976379,	0.747185,	0.979125,	0.977233,	-0.802789,	0.006378,	-0.165746,	0.595202,	-0.453475,	0.086886,	-0.007172,	-0.435957,	0.372539,	0.211707,	0.407453,	0.159581,	0.446699,	0.270608,	-0.203040,	0.062288,	0.216346,	-0.546312,	-0.006012,	0.621386,	0.435835,	0.608509,	0.125217,	0.278420,	0.285745,	0.131443,	0.185583,	0.666372,	0.043306,	0.207739,	-0.429975,	0.692923,	0.365642,	-0.789361,	-0.875851,	0.923460,	-0.751030,	-0.925840,	0.277749,	0.374554,	0.726432,	-0.549730,	-0.178075,	0.431501,	0.365886,	-0.535936,	-0.105927,	-0.855831,	-0.368023,	0.879147,	-0.268227,	0.214759,	0.173131,	-0.514695,	0.759209,	-0.010956,	0.097385,	0.522141,	-0.432417,	0.764397,	-0.701285,	0.949278,	0.353191,	-0.273476,	-0.103183,	0.377361,	-0.625538,	-0.172338,	0.852412,	-0.528001,	0.991394,	-0.081454,	0.821162,	-0.357830,	-0.150731,	0.447005,	0.308267,	0.826533,	0.769646,	0.035371,	-0.813959,	-0.809992,	0.910703,	-0.750847,	0.637867,	-0.456587,	-0.240394,	0.869930,	-0.410382,	0.297037,	-0.480392,	0.984191,	0.692801,	-0.236793,	-0.545946,	0.201514,	-0.079806,	-0.381695,	0.749687,	-0.685842,	0.837703,	0.337504,	-0.537706,	0.710257,	-0.385785,	0.414777,	0.107089,	-0.146886,	-0.167211,	0.180578,	-0.544664,	0.140721,	-0.835810,	0.029634,	-0.898618,	-0.544908,	0.967101,	-0.128819,	0.361248,	-0.283486,	0.876156,	-0.385174,	0.065706,	-0.246071,	-0.559252,	-0.496323,	0.810663,	0.804010,	0.877621,	0.107822,	0.226783,	0.951964,	0.998352,	0.790216,	0.831599,	-0.173803,	0.375713,	0.458052,	-0.974487,	-0.140782,	-0.188879,	-0.588427,	0.795404,	-0.572558,	0.164525,	0.103305,	0.687307,	0.182531,	-0.389447,	-0.380596,	-0.388409,	-0.113254,	0.383160,	-0.303281,	0.042207,	-0.935606,	0.070528,	-0.912839,	0.173376,	0.782403,	-0.476485,	0.082736,	-0.404645,	-0.127781,	0.440230,	0.012299,	0.052889,	0.905759,	0.688101,	-0.475631,	-0.152684,	-0.762684,	0.427351,	0.467330,	-0.553453,	0.425336,	-0.902280,	-0.820734,	0.864193,	0.439474,	0.330546,	0.001495,	0.370403,	-0.699026,	0.849605,	0.826350,	-0.901914,	0.468856,	0.422346,	-0.507370,	-0.894711,	-0.052156,	0.924802,	0.842402,	-0.542467,	0.768914,	-0.418073,	-0.751579,	-0.107700,	0.150426,	0.446333,	0.428816,	0.627674,	0.322001,	-0.822016,	-0.642079,	-0.121921,	0.226722,	-0.813105,	0.087985,	-0.359722,	0.414960,	0.201697,	0.293435,	-0.689932,	0.442183,	-0.673452,	0.349895,	-0.305277,	-0.917112,	-0.350932,	-0.238380,	0.981872,	0.673879,	0.460799,	0.748528,	-0.772210,	-0.101718,	0.154332,	-0.194311,	0.928526,	0.324442,	-0.141942,	-0.951292,	0.234107,	-0.989929,	0.872249,	0.156285,	0.371746,	0.486374,	-0.032258,	0.722648,	-0.163549,	0.432661,	-0.388775,	-0.166601,	0.915525,	0.355693,	-0.822016,	0.676138,	-0.893857,	-0.415143,	0.216102,	0.998169,	0.991150,	-0.103549,	-0.176550,	-0.774529,	-0.866756,	-0.920713,	-0.799127,	-0.946348,	-0.447554,	0.754509,	-0.556810,	0.324076,	0.347026,	0.761162,	-0.368511,	0.997558,	-0.978332,	-0.578478,	-0.711661,	0.038667,	-0.913999,	-0.002716,	0.258827,	0.022492,	-0.515976,	0.649464,	0.080050,	-0.723868,	-0.581347,	0.215430,	-0.098788,	0.368633,	0.133457,	-0.885861,	-0.982849,	0.760125,	0.213355,	-0.306803,	-0.922483,	0.424604,	-0.032014,	-0.670400,	0.034333,	0.257302,	-0.541124,	0.597034,	0.890011,	0.079501,	-0.265297,	-0.187963,	-0.690664,	0.054170,	-0.165258,	0.271401,	-0.843318,	0.323954,	-0.874569,	-0.506088,	0.021516,	0.685848,	-0.468734,	0.777825,	-0.205237,	-0.897946,	-0.778069,	0.388043,	0.358867,	0.901730,	0.320292,	0.683889,	-0.547166,	-0.586962,	0.191015,	0.501572,	0.776482,	-0.086703,	0.875057,	-0.898024,	-0.605701,	-0.337626,	0.230018,	-0.999878,	0.504013,	-0.150243,	-0.659108,	0.666477,	0.629627,	0.263649,	-0.237770,	-0.378094,	-0.696402,	0.495041,	-0.844661,	0.637806,	0.299539,	0.490097,	0.882077,	0.341594,	0.477828,	0.262062,	0.118442,	0.557726,	-0.692373,	-0.423872,	0.050264,	-0.715567,	-0.872982,	-0.580432,	0.713065,	0.423994,	-0.796625,	0.069002,	0.039409,	0.890683,	-0.342204,	-0.431501,	-0.324686,	-0.588794,	0.314737,	-0.569994,	-0.870785,	0.328898,	0.540269,	-0.631275,	0.814875,	0.723502,	-0.869137,	-0.113376,	-0.448225,	0.160863,	0.316019,	0.515549,	-0.915036,	-0.616565,	0.935545,	0.533555,	-0.813227,	-0.744987,	0.856258,	-0.033967,	-0.096835,	0.271462,	-0.311014,	-0.315470,	0.507065,	-0.049165,	-0.131016,	0.415937,	-0.278665,	0.414594,	-0.838252,	-0.526048,	0.773797,	-0.527207,	0.657582,	-0.973937,	-0.153783,	-0.474288,	-0.683340,	0.708182,	-0.518479,	-0.405622,	-0.872188,	0.398968,	-0.490585,	0.792535,	-0.057711,	-0.032624,	-0.945799,	0.552354,	0.046419,	-0.194861,	0.188025,	-0.083285,	-0.464888,	0.956847,	0.789788,	-0.789544,	0.548204,	0.660146,	-0.825312,	0.402875,	-0.567125,	0.108799,	0.055696,	-0.526048,	0.894406,	0.250710,	0.398358,	-0.902402,	-0.802789,	0.433760,	0.734489,	0.953246,	0.480209,	-0.288430,	0.493820,	-0.021210,	-0.753533,	-0.377789,	0.918760,	-0.121860,	-0.907346,	0.251808,	0.122776,	0.194250,	0.738334,	0.396100,	-0.143284,	0.261879,	-0.581469,	-0.368389,	0.543809,	0.351177,	0.702872,	-0.889584,	0.147374,	-0.684622,	0.801996,	0.888915,	-0.567370,	-0.945006,	0.425398,	0.604846,	-0.814142,	-0.889096,	0.252480,	-0.684805,	-0.047273,
		-0.301431,	-0.921018,	-0.694815,	-0.141148,	0.496506,	0.702567,	-0.316507,	-0.924924,	-0.499141,	0.607715,	0.575060,	0.489669,	-0.740165,	0.515671,	-0.276467,	-0.850703,	0.892430,	-0.141148,	0.317240,	0.033723,	0.542405,	0.244117,	-0.150914,	0.723136,	0.576037,	-0.033540,	0.825495,	0.523911,	-0.496567,	0.636525,	-0.865719,	0.613208,	0.270669,	0.983459,	0.886044,	0.765740,	0.234169,	-0.104038,	-0.459822,	-0.774773,	-0.203528,	-0.235145,	0.129002,	-0.717215,	0.921628,	0.187780,	0.391461,	-0.875423,	-0.159215,	-0.899411,	-0.369915,	0.512009,	-0.737053,	-0.603015,	-0.897275,	0.856136,	0.401471,	0.098239,	0.762200,	0.248940,	0.129368,	0.136753,	0.155492,	0.014740,	-0.423505,	-0.184423,	0.296793,	0.342998,	-0.519822,	0.005585,	0.324259,	-0.434187,	0.602710,	0.143895,	-0.244362,	0.642995,	0.527024,	-0.904599,	0.153356,	-0.584582,	-0.855281,	-0.059664,	-0.987671,	0.192236,	0.147496,	0.749565,	-0.316507,	-0.769463,	0.834529,	0.411115,	0.143895,	-0.326029,	-0.450240,	-0.429914,	0.428266,	0.509445,	-0.940123,	-0.256020,	-0.467940,	-0.893307,	-0.813654,	0.676321,	-0.399335,	-0.097934,	-0.996033,	0.991333,	0.215308,	0.789361,	-0.081759,	0.211829,	0.589831,	-0.219825,	-0.065889,	-0.797357,	0.489975,	-0.503403,	0.428816,	-0.897153,	-0.312540,	0.057894,	-0.259133,	-0.192114,	0.762200,	-0.075411,	0.888119,	0.065951,	-0.935789,	-0.738151,	-0.272805,	0.249611,	0.649098,	-0.614490,	0.866817,	-0.134312,	-0.003143,	0.851558,	-0.352580,	0.866329,	0.330668,	-0.246376,	-0.499802,	0.822626,	0.344035,	0.789605,	0.996582,	-0.975097,	0.151280,	0.660146,	-0.097568,	-0.429182,	0.273492,	0.362102,	0.548814,	0.503952,	0.470992,	-0.061312,	-0.169530,	-0.933836,	0.237953,	0.249062,	0.147252,	0.125889,	-0.232643,	-0.679495,	0.598132,	-0.156224,	-0.797235,	-0.155492,	0.741978,	-0.359661,	0.987060,	-0.619861,	0.240089,	0.525864,	-0.878658,	-0.173070,	0.701122,	0.856746,	0.147130,	-0.269936,	0.926267,	-0.420331,	-0.337626,	-0.020417,	0.249001,	0.027009,	-0.813227,	0.466781,	0.625416,	0.325175,	-0.813959,	0.260598,	0.451399,	-0.521287,	-0.930906,	0.865413,	-0.980529,	-0.806940,	-0.029145,	-0.876339,	0.061129,	0.497604,	-0.867855,	-0.674427,	-0.332255,	-0.767693,	-0.309915,	-0.911924,	0.903317,	-0.539720,	0.690909,	0.566393,	0.420637,	0.868160,	-0.861751,	-0.440840,	-0.605335,	-0.782464,	0.888791,	0.071810,	0.083834,	-0.090121,	0.207923,	0.898495,	0.333476,	-0.273293,	0.798944,	-0.213843,	-0.667409,	0.808588,	0.116062,	-0.255898,	0.937864,	-0.065401,	-0.223731,	-0.940855,	-0.124546,	-0.834956,	-0.119419,	-0.418683,	-0.864742,	0.910398,	0.058565,	0.841365,	-0.131504,	-0.512436,	-0.952879,	0.562426,	0.101596,	0.228309,	-0.381756,	-0.870663,	-0.420576,	0.199622,	0.665456,	0.577258,	-0.950194,	-0.399335,	-0.736076,	-0.338481,	-0.698416,	-0.102145,	0.515854,	-0.426435,	0.269570,	-0.239601,	-0.007904,	-0.137364,	-0.482040,	0.859798,	0.586108,	-0.872616,	0.415754,	0.594104,	0.588366,	0.039827,	-0.684744,	-0.198340,	0.797784,	-0.736869,	0.047945,	0.524644,	-0.520737,	-0.172582,	-0.951842,	-0.113681,	0.982788,	0.523972,	-0.580676,	-0.855892,	0.833857,	-0.117466,	-0.746879,	-0.019135,	-0.889950,	-0.707755,	0.515732,	-0.903317,	0.915036,	0.830317,	-0.187475,	-0.835444,	-0.237953,	0.359722,	-0.655385,	-0.788751,	0.681326,	-0.540819,	-0.631153,	0.486740,	0.861263,	0.747856,	0.474471,	0.884396,	0.638417,	0.166356,	0.988647,	-0.025605,	0.646901,	0.778252,	-0.176672,	-0.286966,	-0.059358,	-0.347209,	0.076388,	0.890194,	0.901242,	0.392743,	-0.301974,	0.377483,	-0.257424,	0.868831,	0.539048,	-0.759941,	0.426557,	0.723991,	0.084689,	0.774041,	0.800714,	0.209388,	-0.800348,	0.531541,	0.771355,	0.915464,	0.184423,	-0.602161,	-0.675405,	-0.040742,	0.461776,	-0.219337,	0.206946,	0.192053,	0.205664,	-0.024201,	-0.920957,	-0.011567,	-0.777032,	0.770745,	-0.045686,	-0.819758,	-0.598010,	-0.650685,	-0.264748,	0.697506,	0.039705,	0.559557,	0.660207,	0.478500,	0.360942,	0.607105,	-0.527635,	-0.787347,	0.540696,	-0.762749,	-0.875790,	0.477340,	-0.456587,	-0.532151,	-0.170629,	0.831599,	-0.908872,	0.934690,	-0.725089,	0.430036,	0.072726,	-0.086520,	0.806207,	-0.281899,	0.707205,	0.080172,	-0.603381,	0.772515,	0.773553,	-0.928648,	0.215674,	0.848018,	-0.780694,	0.908506,	-0.393963,	0.694144,	-0.539048,	-0.652333,	-0.715201,	-0.796014,	-0.312845,	0.217872,	-0.421430,	0.957457,	0.479782,	-0.190222,	0.506699,	0.221351,	-0.937193,	-0.621876,	0.525071,	-0.030915,	0.493271,	0.819453,	-0.258339,	-0.517136,	-0.894528,	-0.411603,	-0.581713,	-0.900388,	0.522446,	-0.084872,	0.569079,	-0.335429,	-0.454756,	0.385113,	-0.530381,	-0.745964,	0.234901,	0.945494,	0.888913,	0.730644,	-0.502915,	-0.600574,	0.855586,	0.692251,	0.484237,	0.451460,	-0.226844,	-0.621082,	-0.874691,	-0.634449,	-0.305887,	0.098910,	0.098727,	-0.700369,	0.567614,	-0.263649,	-0.442854,	0.378094,	-0.728385,	0.904355,	0.920713,	-0.435224,	0.243263,	-0.696036,	-0.952879,	-0.599963,	-0.480941,	0.854305,	-0.904721,	0.662771,	0.997925,	0.152501,	-0.609058,	-0.979186,	0.739114,	0.830622,	0.609912,	0.733207,	0.107639,	-0.632557,	0.589709,	-0.536180,	-0.418500,	0.921567,	-0.917173,	-0.727409,	0.028657,	0.744743,	-0.236122,	-0.155919,	-0.728446,	-0.258278,	-0.197865,	-0.983215,	0.748528,	-0.264504,	0.317362,	0.676504,	0.084872,	-0.997131,	0.227002,	-0.925901,	0.387799,	-0.358013,	-0.648488,	-0.366680,	0.074862,	-0.666066,	-0.527390,	-0.692190,	0.051790,	-0.937620,	-0.670522,	0.552293,	0.049043,	-0.648610,	-0.797906,	-0.030793,	0.932005,	0.586535,	-0.010224,	-0.306070,	0.795648,	-0.020478,	0.565661,	0.580371,	-0.342509,	0.740843,	0.510666,	-0.750053,	0.560167,	0.020844,	0.538499,	0.066866,	-0.103122,	-0.816157,	-0.075655,	0.100681,	0.772027,	0.976318,	-0.749443,	0.140660,	0.209510,	-0.848323,	-0.219337,	-0.177099,	0.020966,	-0.884335,	-0.224708,	-0.066988,	0.147130,	-0.847163,	-0.938597,	-0.052217,	0.283731,	0.797967,	0.168798,	-0.123020,	0.605579,	-0.085849,	-0.655629,	0.468795,	-0.599536,	-0.958678,	-0.241066,	0.840693,	0.426130,	0.575610,	0.217261,	-0.400861,	-0.198401,	-0.656056,	-0.315592,	0.509629,	-0.752739,	0.135838,	0.941893,	0.780023,	-0.515854,	0.753899,	-0.316324,	-0.980163,	0.606250,	0.147435,	0.368145,	0.938108,	-0.761773,	0.189612,	-0.865841,	-0.159215,	-0.709647,	0.662343,	-0.901791,	-0.006561,	0.123875,	0.010224,	0.341349,	-0.092257,	0.938841,	-0.573046,	-0.099399,	-0.382550,	-0.802667,	0.835932,	0.077487,	-0.995117,	-0.105808,	0.327799,	0.374004,	-0.759514,	-0.512131,	-0.381939,	-0.628773,	0.398297,	-0.695975,	-0.913755,	-0.138524,	-0.690237,	0.224158,	0.959716,	-0.453658,	0.718375,	-0.527757,	0.204504,	0.614612,	-0.202857,	-0.689138,	-0.314188,	0.510666,	-0.907285,	0.460921,	-0.839595,	-0.792596,	-0.043062,	0.055581,	0.663625,	-0.704581,	-0.470565,	0.941771,	-0.146886,	0.200720,	-0.666189,	0.144017,	-0.127232,	0.844295,	0.549242,	-0.702506,	-0.702017,	0.055574,	0.020478,	0.869015,	0.725944,	-0.948215,	0.068697,	0.973937,	-0.427595,	-0.701895,	0.165563,	0.604724,	-0.361126,	0.435805,	-0.467086,	0.080783,	-0.989257,	0.933103,	0.731376,	0.534410,	0.850948,	-0.233497,	-0.701459,	-0.756157,	0.649770,	-0.892087,	-0.498215,	0.626820,	0.495041,	-0.328410,	-0.733879,	-0.293558,	-0.076205,	0.027192,	0.340190,	-0.137425,	-0.081576,	0.861141,	0.763481,	-0.319376,	-0.389623,	-0.883785,	-0.303262,	0.710746,	0.252724,	0.323161,	-0.321940,	0.949278,	0.025361,	0.435469,	0.366985,	-0.144383,	0.234291,	-0.518601,	0.840022,	-0.282876,	0.468184,	0.344340,	0.498947,	-0.826899,	-0.725639,	0.984619,	-0.345073,	-0.287149,	-0.082858,	-0.584582,	-0.148656,	0.957396,	-0.220069,	-0.254738,	0.986755,	-0.459822,	0.975097,	0.598682,	-0.698538,	-0.602832,	0.723197,	0.228980,	-0.709830,	0.279763,	-0.935911,	-0.365032,	-0.397443,	0.302774,	0.462630,	-0.006622,	-0.005768,	-0.659536,	0.871395,	-0.279153,	-0.608020,	-0.917722,	0.812983,	-0.522935,	0.134190,	0.561388,	0.044343,	0.421979,	0.449141,	0.968383,	0.365520,	0.038972,	0.235084,	0.562792,	0.135716,	0.837641,	0.202796,	-0.505539,	-0.941527,	0.247230,	-0.555834,	-0.651906,	0.799310,
		-0.985473,	-0.510666,	-0.778069,	-0.002594,	0.418134,	-0.086032,	-0.844539,	-0.765130,	-0.389019,	-0.439558,	0.716117,	0.525254,	-0.594592,	0.434736,	-0.440840,	0.883847,	-0.189062,	0.340922,	-0.227088,	0.542955,	-0.360698,	-0.682424,	0.821162,	-0.625904,	-0.512009,	-0.063631,	0.895871,	0.079501,	0.415448,	0.527207,	-0.507248,	-0.284097,	-0.380413,	-0.608875,	-0.978045,	0.112522,	-0.566149,	-0.935423,	0.266091,	0.746757,	0.950926,	0.696219,	-0.501144,	0.638356,	0.588488,	-0.399945,	0.075899,	0.826838,	0.909055,	0.046785,	0.311075,	-0.007660,	0.005631,	0.355815,	0.450606,	0.784478,	0.767083,	0.350383,	0.556749,	-0.580493,	0.562420,	0.238868,	0.114536,	0.111179,	-0.942015,	0.984252,	-0.826167,	0.894467,	-0.718680,	-0.776055,	-0.161168,	0.407269,	-0.760979,	0.803644,	-0.082614,	0.191748,	0.407575,	-0.013825,	-0.456404,	0.076876,	-0.394574,	0.399274,	0.585253,	-0.793573,	0.160131,	0.783868,	-0.351115,	0.273476,	-0.545457,	-0.394635,	0.495224,	-0.475692,	-0.835444,	-0.408551,	0.676870,	0.095065,	-0.499802,	0.257363,	0.211463,	-0.758049,	-0.236183,	-0.517685,	-0.897275,	-0.970458,	0.536485,	0.199622,	-0.478988,	-0.962523,	-0.193396,	-0.738578,	-0.543077,	0.650136,	0.351726,	0.543382,	-0.339702,	-0.509629,	0.687002,	-0.651723,	0.676321,	-0.439619,	0.892819,	0.174657,	-0.208106,	-0.347819,	-0.366741,	0.909726,	0.705557,	-0.410138,	-0.320841,	-0.488205,	-0.269082,	0.866695,	0.246925,	0.242653,	-0.650746,	-0.760918,	-0.533311,	-0.486496,	0.921567,	-0.159825,	-0.708182,	0.406964,	-0.626881,	0.375225,	0.162084,	-0.063387,	-0.336222,	0.961852,	-0.266640,	0.108249,	-0.144566,	0.177038,	0.986572,	0.843745,	0.589892,	-0.126011,	0.027314,	-0.169225,	-0.210974,	0.330485,	0.890194,	-0.638722,	0.390912,	0.292459,	-0.341105,	-0.779900,	-0.067537,	-0.526109,	-0.784234,	-0.312723,	-0.206702,	0.076876,	0.932249,	-0.283975,	0.911679,	0.893246,	0.613208,	0.348979,	-0.214454,	0.551012,	-0.991333,	0.435285,	-0.428266,	-0.532456,	0.203101,	0.710807,	0.094638,	-0.927122,	0.196814,	-0.695608,	-0.421796,	-0.135716,	0.991211,	0.732231,	-0.087375,	0.855647,	0.490585,	-0.557360,	0.268777,	-0.015656,	-0.467757,	-0.024689,	0.873165,	0.037080,	0.358989,	0.794732,	-0.245216,	-0.342204,	-0.155736,	-0.136998,	0.278115,	0.000458,	-0.215177,	-0.986633,	0.272866,	0.588794,	-0.427778,	-0.813532,	0.574328,	0.944945,	-0.178774,	-0.407270,	-0.213599,	-0.448897,	0.402692,	0.863216,	-0.920286,	0.705252,	0.795038,	-0.749440,	-0.162755,	0.833552,	0.727226,	-0.055513,	-0.039705,	0.822871,	0.766106,	0.561449,	-0.352947,	-0.065035,	0.556871,	0.873775,	0.456404,	-0.134434,	0.896603,	-0.160680,	0.469100,	0.509816,	0.686331,	-0.006012,	-0.640614,	-0.001862,	-0.924986,	0.270608,	0.189551,	0.563341,	0.107456,	-0.694449,	-0.261574,	0.802728,	0.188086,	0.296731,	0.179357,	-0.103061,	-0.325968,	-0.525803,	-0.083407,	0.348796,	0.909787,	-0.752861,	0.395611,	0.803461,	0.015229,	0.088717,	0.697806,	-0.486190,	0.740593,	0.222022,	0.733146,	0.012482,	-0.300027,	-0.831172,	0.843074,	-0.446516,	-0.703543,	0.225074,	0.625965,	-0.114170,	-0.348979,	-0.076937,	0.797540,	0.921873,	-0.152074,	-0.453658,	0.899167,	0.862545,	-0.191137,	0.756340,	0.666433,	-0.658132,	-0.891049,	0.395306,	-0.129917,	-0.845759,	0.045991,	0.527940,	0.442244,	-0.874508,	-0.723563,	0.783135,	-0.299783,	-0.308939,	-0.669423,	-0.940672,	0.480819,	-0.255776,	0.318766,	-0.344096,	0.996582,	0.315958,	-0.858760,	0.892087,	0.228065,	-0.350810,	0.515244,	-0.722587,	-0.336894,	-0.769280,	-0.869747,	0.295267,	-0.803461,	-0.658315,	-0.754997,	0.861873,	0.002655,	-0.308878,	-0.961791,	-0.476180,	0.192236,	-0.306742,	0.026093,	-0.543382,	0.068270,	-0.047761,	0.858028,	0.326029,	0.790704,	-0.483871,	-0.195532,	0.075289,	-0.735343,	0.463546,	-0.751518,	0.701224,	-0.936277,	0.383709,	0.493332,	-0.919858,	0.200232,	0.314615,	0.199194,	0.907956,	-0.443648,	0.700308,	0.761711,	0.815302,	0.787896,	0.930113,	-0.056246,	0.721610,	-0.487289,	-0.977783,	0.073932,	-0.510727,	0.597400,	-0.984802,	0.124363,	-0.057955,	-0.646779,	0.627613,	0.978820,	0.308023,	-0.543748,	0.751030,	-0.794244,	0.151830,	-0.599170,	-0.663381,	-0.352153,	-0.142552,	0.301981,	-0.760369,	0.139256,	-0.276284,	0.857540,	0.582263,	0.665456,	-0.263466,	0.282937,	-0.800287,	0.276650,	0.078585,	-0.968932,	-0.269814,	0.067171,	-0.559984,	0.110324,	0.911804,	-0.465438,	-0.806940,	0.811701,	-0.350688,	0.629200,	0.491195,	-0.340312,	-0.586840,	0.808466,	0.357708,	0.398053,	-0.467940,	-0.592944,	-0.175390,	-0.177587,	0.943846,	0.636402,	0.184545,	-0.725517,	0.964660,	-0.474960,	0.419111,	0.607410,	0.641285,	0.113559,	-0.135105,	0.437361,	-0.752800,	0.215125,	-0.819453,	-0.507614,	-0.513901,	0.055879,	-0.322794,	0.871395,	-0.035310,	-0.894162,	0.074557,	0.025788,	0.497421,	0.414411,	0.745109,	0.276467,	0.806391,	0.761711,	0.509445,	0.678091,	0.177587,	-0.060762,	0.044710,	0.044038,	0.636891,	-0.528123,	0.968932,	-0.056551,	-0.791803,	0.093661,	0.663015,	0.483932,	-0.183996,	0.289712,	-0.105136,	-0.308695,	0.395062,	-0.782037,	-0.694815,	0.300577,	-0.230628,	0.321329,	-0.179662,	0.767998,	-0.136448,	0.944090,	-0.947264,	0.319803,	-0.191504,	0.264931,	0.752373,	0.847896,	-0.496078,	0.858821,	-0.628773,	-0.534593,	-0.798883,	0.199805,	0.804376,	0.535752,	0.666738,	-0.581408,	-0.632008,	0.985717,	0.491806,	-0.374493,	0.079501,	-0.282632,	-0.892209,	-0.886715,	0.300089,	0.929685,	0.071810,	-0.249245,	-0.196753,	0.162084,	-0.815973,	-0.119663,	-0.668081,	0.874798,	-0.000214,	0.032502,	0.706107,	0.373394,	-0.701590,	0.768548,	0.543443,	0.900632,	-0.928098,	0.965148,	0.656484,	0.691336,	0.595386,	-0.147435,	-0.812677,	0.820124,	-0.857845,	-0.881459,	-0.456343,	0.643361,	0.906064,	0.396588,	-0.802484,	-0.348125,	0.692740,	0.946397,	-0.589587,	0.546556,	-0.056307,	-0.731376,	-0.053560,	-0.651357,	-0.345683,	-0.257363,	-0.163964,	-0.641407,	-0.251015,	-0.395428,	0.253212,	0.773736,	-0.523728,	0.586779,	0.568712,	0.779840,	0.385357,	-0.277810,	-0.358928,	-0.072848,	0.447371,	-0.769036,	-0.591174,	-0.395611,	0.884097,	0.285073,	0.845760,	0.422712,	0.265481,	0.964293,	-0.658315,	0.322184,	-0.560106,	-0.283120,	-0.427473,	0.214087,	-0.141636,	0.636097,	0.920042,	-0.030000,	0.856197,	-0.134556,	-0.495041,	0.571703,	0.453841,	-0.554064,	-0.103000,	-0.766594,	-0.759819,	-0.083346,	0.561754,	-0.690725,	-0.099948,	-0.017853,	0.109226,	-0.201636,	-0.051424,	0.558580,	0.405255,	0.260171,	0.235816,	-0.488937,	-0.390851,	-0.047578,	0.782464,	0.395489,	-0.801019,	-0.995849,	0.510971,	-0.483932,	0.048311,	0.436567,	0.432905,	0.612171,	-0.384442,	0.843867,	0.856563,	-0.513413,	-0.690237,	0.546800,	0.176122,	-0.112400,	0.094333,	-0.968627,	-0.194617,	0.957396,	-0.608753,	0.485458,	0.818903,	-0.440657,	-0.650685,	-0.755119,	0.862056,	-0.202796,	-0.462447,	-0.036897,	0.893857,	-0.962645,	0.127110,	0.315165,	0.323466,	0.748283,	0.623890,	-0.950194,	0.104648,	-0.531785,	0.214515,	-0.798028,	0.349040,	0.215064,	0.788141,	-0.723075,	0.021577,	-0.350810,	0.696402,	0.220985,	-0.718986,	-0.696402,	0.314127,	0.988464,	0.026643,	0.192236,	-0.536485,	0.520005,	-0.785028,	-0.889767,	-0.235878,	0.942686,	0.508774,	-0.062105,	-0.029450,	-0.194039,	0.819819,	0.260903,	-0.638111,	0.163854,	-0.690603,	0.619739,	-0.756462,	0.320414,	-0.591784,	0.700247,	-0.374676,	0.043611,	-0.582202,	-0.221839,	-0.862178,	-0.932127,	0.257179,	-0.269858,	-0.750725,	0.692618,	-0.083895,	-0.075533,	0.846065,	0.290933,	-0.822077,	0.490906,	0.238563,	-0.458052,	0.174718,	-0.045015,	0.655751,	0.197180,	0.336467,	-0.455245,	0.290327,	0.195044,	-0.702261,	0.815241,	0.957213,	-0.064119,	-0.676199,	-0.426679,	0.427473,	-0.471175,	0.818476,	-0.586474,	0.501328,	0.824702,	-0.523484,	0.509629,	-0.118992,	-0.954405,	0.644033,	0.785882,	-0.092502,	-0.174169,	-0.553331,	-0.220069,	0.222999,	0.474349,	0.251503,	0.509140,	0.421308,	-0.726981,	0.022309,	-0.347026,	0.749443,	-0.377544,	-0.867428,	-0.634388,	-0.077731,	0.847835,	0.197852,	-0.971679,	-0.887082,	0.477340,	0.489486,	0.257118,	0.181799,	-0.193823,	0.494247,
		-0.524216,	-0.794305,	-0.442244,	0.179662,	-0.631336,	-0.628956,	-0.544786,	-0.470504,	-0.475631,	0.292215,	0.515732,	0.911496,	-0.416913,	-0.181433,	-0.120396,	-0.161229,	-0.798639,	-0.607959,	0.987671,	-0.310526,	0.144566,	-0.981872,	0.918027,	0.944762,	0.821589,	0.912778,	-0.303812,	0.509629,	0.572924,	-0.113193,	-0.610096,	-0.322001,	0.025910,	-0.467452,	-0.198096,	0.304727,	0.827815,	0.272317,	0.572253,	-0.252724,	-0.928953,	0.333415,	0.504440,	0.139561,	-0.277566,	-0.288675,	-0.074496,	0.559862,	0.368145,	0.183508,	0.894467,	-0.343730,	-0.411969,	-0.563158,	-0.929319,	-0.708365,	0.271767,	0.370281,	0.055025,	0.770012,	-0.812311,	-0.363628,	0.015839,	0.207984,	-0.880612,	0.483139,	-0.586901,	0.613453,	0.880367,	-0.040498,	-0.367595,	-0.766778,	-0.479843,	-0.453719,	-0.658620,	-0.266945,	0.035005,	-0.724235,	0.382000,	-0.228126,	0.893918,	0.401715,	0.009552,	-0.466414,	0.694693,	0.682669,	-0.707205,	-0.221900,	0.260414,	-0.658498,	0.486007,	0.974120,	-0.509384,	-0.237037,	-0.813715,	0.076815,	-0.721959,	0.991516,	0.089328,	0.512619,	-0.193762,	0.093173,	0.153783,	-0.066805,	-0.236982,	0.443098,	-0.010041,	-0.698172,	0.191137,	0.000763,	-0.717338,	-0.126194,	0.082003,	0.636895,	-0.938169,	-0.365581,	-0.974670,	0.572497,	0.633595,	-0.243812,	-0.768731,	0.995056,	-0.016327,	0.638173,	-0.566759,	0.911679,	-0.533677,	0.089694,	0.587085,	-0.695853,	-0.409406,	-0.778617,	0.447676,	0.646535,	0.716910,	0.605518,	-0.661489,	0.848445,	-0.523972,	0.268288,	0.423872,	-0.312418,	-0.276162,	0.077059,	0.798151,	0.791925,	0.842952,	0.084140,	0.703787,	-0.764275,	-0.795160,	-0.609607,	-0.809259,	-0.188452,	-0.394757,	-0.909299,	-0.470138,	0.039949,	0.483322,	-0.135655,	0.692618,	0.980407,	-0.260109,	-0.228431,	0.209510,	-0.094821,	0.964965,	0.820917,	0.720450,	-0.100375,	0.888058,	-0.132725,	-0.471480,	0.449934,	-0.135838,	0.405622,	-0.529527,	0.082064,	0.206702,	0.820856,	0.415815,	-0.885739,	0.180944,	-0.342204,	-0.292337,	-0.415265,	0.470321,	-0.527024,	0.857112,	0.417890,	0.927244,	-0.169103,	0.804437,	0.891598,	0.422346,	-0.992615,	-0.941099,	0.467269,	-0.396710,	0.962767,	-0.969909,	0.046297,	-0.623280,	-0.853877,	0.863094,	0.714042,	0.924802,	-0.304178,	0.089816,	-0.964721,	0.069735,	-0.405011,	-0.589892,	0.962645,	-0.201331,	0.348003,	-0.086703,	-0.579516,	-0.238990,	0.738517,	-0.945982,	-0.372051,	0.550462,	-0.767998,	-0.305460,	-0.778130,	-0.414350,	-0.414411,	-0.474166,	-0.756523,	0.400250,	0.226722,	-0.819758,	-0.949339,	0.155614,	0.964843,	0.347880,	-0.781243,	-0.810602,	-0.403302,	0.209327,	-0.508164,	-0.589038,	-0.030488,	-0.502304,	-0.152501,	-0.642628,	0.062899,	0.501694,	-0.262795,	0.721976,	-0.346660,	0.322428,	-0.434797,	0.168004,	0.122959,	-0.302742,	-0.532090,	-0.759819,	-0.024628,	0.702506,	-0.543077,	0.186132,	0.621265,	-0.163533,	-0.012482,	0.500473,	-0.004425,	0.465865,	-0.984680,	0.004242,	0.569628,	0.944762,	0.604666,	-0.728019,	-0.680044,	-0.947935,	-0.851619,	-0.781182,	0.217261,	-0.271035,	0.265908,	0.660329,	0.796197,	-0.573656,	0.437117,	-0.342692,	-0.628712,	0.709952,	0.438704,	-0.541307,	0.458541,	0.243629,	0.643300,	0.854244,	0.967162,	0.464583,	-0.756096,	-0.250282,	0.723319,	0.262429,	-0.532395,	-0.222022,	-0.111545,	0.974303,	0.838923,	0.756768,	0.834346,	-0.990722,	0.557238,	0.807428,	-0.962096,	-0.585925,	0.050020,	0.945738,	0.558153,	-0.307474,	0.763726,	-0.041719,	0.657277,	0.191687,	0.255898,	0.376385,	-0.870785,	0.366497,	0.650685,	-0.640065,	0.897580,	-0.763543,	0.519700,	-0.695791,	-0.554674,	-0.654530,	0.251747,	-0.018220,	-0.360332,	0.538682,	-0.027497,	-0.968261,	-0.486923,	0.867855,	0.078341,	0.609851,	-0.435408,	0.938414,	-0.554491,	-0.989807,	-0.857234,	-0.989929,	-0.622486,	-0.926633,	0.473556,	-0.835444,	0.353496,	0.191015,	-0.105747,	-0.149022,	-0.360332,	-0.278603,	0.858455,	-0.875851,	0.827082,	0.627430,	0.271645,	-0.114536,	-0.643483,	-0.850642,	0.722282,	-0.558824,	-0.904294,	-0.673940,	0.169225,	0.688833,	0.028657,	0.175512,	-0.350749,	-0.754326,	0.120884,	0.348552,	0.566332,	-0.169225,	-0.576403,	0.067537,	0.125278,	0.213050,	-0.521897,	-0.837214,	0.472823,	0.039338,	0.083590,	-0.980834,	0.108005,	0.852718,	0.490646,	-0.754936,	-0.875546,	0.615284,	-0.916807,	0.877298,	0.847591,	-0.952574,	0.611560,	0.931150,	-0.571825,	-0.904294,	-0.962523,	0.116184,	-0.043550,	0.842463,	-0.943052,	0.517747,	0.657277,	-0.831416,	0.359416,	-0.931822,	-0.269875,	-0.515892,	-0.311136,	-0.385418,	0.396710,	0.836360,	0.767937,	-0.603626,	0.717155,	0.862276,	-0.852412,	0.745781,	-0.261208,	0.830378,	0.045686,	-0.176855,	0.539537,	0.285745,	0.235153,	-0.799127,	-0.272011,	-0.725333,	0.046846,	0.106235,	-0.036714,	-0.202673,	0.547349,	-0.862545,	-0.943297,	0.600330,	-0.044954,	-0.734733,	0.218299,	0.687368,	0.357341,	-0.068392,	-0.989916,	0.709342,	0.790887,	0.058504,	-0.430952,	0.545396,	-0.252174,	0.780145,	-0.338176,	0.388531,	-0.829951,	-0.290750,	-0.865413,	-0.353191,	0.994446,	-0.447981,	-0.680837,	0.974120,	0.311075,	0.882504,	-0.040742,	-0.258156,	0.197913,	-0.110141,	-0.781671,	0.265114,	0.292947,	0.911313,	-0.667531,	-0.905454,	0.167516,	0.561571,	-0.530198,	0.687979,	-0.436934,	-0.726371,	0.359600,	-0.227821,	0.553453,	-0.938353,	0.253578,	-0.289712,	-0.304788,	-0.681143,	0.781732,	-0.816218,	-0.770318,	-0.536607,	0.264687,	0.505051,	-0.602954,	0.244179,	-0.953612,	-0.130284,	0.927183,	0.519578,	0.408307,	0.864559,	-0.231849,	-0.678945,	-0.372173,	-0.459700,	-0.883969,	0.014679,	0.744987,	0.364605,	0.807733,	0.372356,	-0.402997,	-0.634754,	-0.860958,	-0.633717,	0.686392,	-0.221534,	-0.827631,	0.498276,	0.442244,	0.512558,	0.593860,	0.476547,	0.440046,	0.741081,	-0.815790,	-0.946898,	-0.860653,	0.937437,	0.966063,	0.833674,	-0.294900,	-0.337138,	-0.911802,	0.872188,	0.472091,	0.421552,	0.512131,	0.863826,	-0.382611,	-0.105991,	0.560350,	-0.252297,	0.602222,	-0.137730,	0.392010,	-0.467696,	-0.055025,	0.138584,	-0.534654,	0.156041,	-0.109836,	0.811213,	0.052095,	0.195471,	-0.466903,	-0.881771,	-0.135594,	-0.766289,	0.965148,	-0.736381,	-0.142064,	0.701895,	-0.000092,	0.486679,	-0.726920,	-0.995544,	0.045259,	-0.302565,	0.977111,	-0.255837,	0.681387,	-0.006439,	-0.830805,	0.855342,	-0.491623,	-0.389005,	0.511948,	-0.539354,	0.826899,	0.898434,	0.750359,	0.263466,	-0.288125,	0.820429,	-0.117645,	0.286660,	-0.955504,	-0.364971,	-0.057955,	-0.227210,	0.063204,	0.729911,	0.458968,	0.056185,	-0.003693,	-0.274819,	-0.344584,	0.220435,	-0.659780,	0.890927,	0.445235,	-0.646535,	0.343497,	-0.057100,	-0.705130,	0.213172,	-0.738578,	-0.469344,	-0.989013,	-0.885311,	-0.058077,	0.728507,	-0.483810,	-0.145848,	-0.693716,	0.843562,	-0.324992,	0.479171,	0.287271,	0.852535,	0.234046,	0.719657,	0.785760,	0.779962,	0.937437,	0.891354,	0.210486,	0.330058,	-0.119907,	0.084994,	0.162023,	-0.914609,	0.163060,	0.452071,	0.823115,	-0.415571,	-0.089450,	-0.598193,	-0.380474,	-0.410199,	0.714103,	0.520310,	-0.287637,	0.861690,	0.564135,	-0.975646,	0.884945,	0.746269,	0.332804,	0.564501,	0.386700,	-0.105747,	-0.130222,	-0.814081,	0.297159,	0.420148,	0.774346,	-0.735588,	0.971069,	-0.184606,	-0.095309,	-0.774468,	-0.871639,	0.928404,	0.689627,	-0.137364,	0.151952,	-0.677175,	0.301859,	-0.935545,	-0.846431,	0.328288,	-0.241798,	-0.234230,	0.373211,	-0.906674,	-0.992126,	0.932859,	-0.528428,	-0.043245,	0.071017,	0.396588,	0.280923,	0.446272,	0.291177,	-0.653798,	0.574694,	0.219337,	0.763115,	-0.704947,	0.418989,	0.257851,	-0.000763,	-0.667898,	-0.330546,	0.629139,	-0.103488,	0.470443,	0.174169,	0.125523,	0.066866,	0.906552,	-0.753105,	0.096042,	-0.406842,	-0.997925,	-0.028291,	-0.218543,	0.273843,	-0.199377,	0.902768,	-0.534227,	0.417646,	-0.108005,	0.720450,	0.757012,	-0.747490,	0.437178,	0.407697,	0.308878,	-0.990234,	-0.834590,	0.508042,	0.296670,	0.746269,	-0.842952,	0.027924,	-0.040292,	0.967895,	-0.776849,	0.546617,	-0.477828,	-0.883663,	-0.303812,	0.095187,	0.805841,	0.981201,	0.442671,	0.367840,	-0.153600,	0.100620,	0.911557,	-0.172704,	-0.173437,	0.212867,	-0.970336,	0.268105,
		-0.362407,	0.820917,	0.758110,	-0.601672,	0.382611,	0.932798,	-0.879879,	-0.995788,	-0.866573,	-0.959349,	0.515427,	-0.741020,	0.254616,	0.400250,	-0.868831,	0.738522,	-0.394940,	-0.326640,	-0.736137,	0.706839,	-0.067415,	-0.003082,	0.363262,	-0.766167,	0.771111,	0.539659,	0.611683,	-0.293252,	-0.845210,	-0.390362,	-0.148778,	-0.700491,	0.461592,	-0.624500,	-0.329142,	-0.038850,	-0.303140,	-0.736992,	-0.533738,	-0.513718,	0.532395,	0.090182,	0.284585,	-0.769707,	0.410810,	0.002716,	-0.732780,	0.031465,	-0.970946,	0.273598,	0.502854,	0.902646,	0.514084,	0.027619,	-0.897702,	0.054659,	0.600940,	-0.045442,	0.309793,	0.814997,	-0.871273,	0.073214,	0.460555,	0.002655,	-0.835078,	-0.391644,	-0.400189,	-0.676809,	-0.929502,	0.044038,	0.573473,	-0.654836,	0.820185,	-0.585376,	0.404462,	0.622059,	0.887692,	0.896847,	0.766533,	-0.480148,	-0.988586,	-0.234840,	-0.631520,	-0.684255,	-0.849727,	-0.227088,	-0.939329,	0.127598,	-0.056185,	-0.978332,	0.477035,	0.238441,	0.989135,	0.381390,	-0.975829,	0.378033,	0.246254,	0.523850,	0.031709,	-0.476058,	0.884945,	0.631764,	0.873898,	-0.215308,	0.885861,	0.846675,	-0.122532,	0.926878,	-0.292703,	-0.483322,	0.826838,	0.110385,	-0.668081,	-0.691336,	0.878964,	-0.607837,	0.003815,	-0.754936,	0.701834,	0.562609,	-0.029817,	0.729850,	0.647388,	-0.124058,	-0.460860,	0.624622,	-0.228797,	0.238563,	0.766533,	-0.561266,	-0.484115,	-0.584460,	-0.916074,	-0.305399,	0.862178,	-0.179235,	0.181127,	0.531175,	0.768670,	0.449995,	0.453786,	-0.391095,	0.708365,	0.522324,	0.332865,	0.377422,	-0.885250,	-0.609912,	0.857050,	-0.231178,	0.551561,	0.281960,	0.412946,	0.380230,	-0.583728,	0.439070,	-0.855525,	0.205664,	0.993042,	-0.790277,	0.349284,	-0.017365,	-0.335795,	0.662587,	-0.826167,	-0.786493,	-0.904660,	0.282144,	0.720206,	0.925840,	0.205420,	0.309122,	0.275124,	0.232582,	-0.266091,	-0.712756,	0.919004,	0.756890,	-0.780938,	0.380413,	0.825922,	-0.018647,	-0.801813,	0.020539,	-0.432478,	-0.413434,	0.443159,	-0.548326,	-0.266579,	-0.160192,	-0.956359,	0.729606,	-0.819453,	0.097263,	-0.849117,	-0.258095,	0.223548,	0.482040,	0.193213,	-0.190161,	-0.920286,	0.800531,	0.377728,	0.434309,	-0.120273,	-0.240761,	-0.711295,	0.749687,	0.557604,	0.545274,	-0.602649,	0.246315,	0.932127,	-0.167638,	-0.707327,	0.325785,	0.291788,	0.275246,	0.448897,	-0.749870,	0.796747,	-0.445051,	0.339640,	0.048616,	0.008942,	0.037080,	-0.287210,	-0.056734,	0.864437,	0.106052,	0.837825,	0.857540,	0.398846,	-0.762139,	0.537889,	-0.431684,	-0.460067,	-0.127049,	0.820673,	-0.933958,	-0.721549,	0.153233,	0.917783,	-0.316385,	-0.468978,	0.584033,	-0.451582,	-0.442549,	0.006195,	0.684988,	-0.782769,	0.983520,	-0.612537,	0.691458,	-0.640065,	0.229774,	0.145421,	0.368999,	0.149266,	-0.631336,	-0.709830,	0.004059,	-0.226295,	-0.308695,	0.379254,	-0.367168,	-0.999023,	-0.733696,	-0.909787,	-0.429609,	-0.160253,	0.205847,	-0.326029,	0.303934,	0.110752,	0.200659,	0.597827,	0.811090,	0.741325,	-0.112033,	0.693594,	-0.632984,	-0.405476,	0.613147,	0.121555,	-0.097995,	0.646107,	0.148595,	-0.536485,	-0.027680,	0.322123,	0.932615,	-0.742668,	-0.593005,	-0.191931,	0.389813,	-0.715018,	-0.307108,	-0.855586,	-0.103977,	-0.072837,	-0.839473,	-0.081088,	-0.049348,	0.898801,	0.032929,	0.369488,	0.118259,	-0.196553,	0.400800,	-0.290384,	-0.697806,	0.899472,	-0.814814,	-0.510910,	0.912900,	-0.822932,	-0.847896,	0.802118,	0.492965,	0.399396,	0.039094,	-0.844417,	0.362163,	0.084689,	0.858333,	-0.189428,	0.844111,	-0.057100,	-0.561815,	-0.591906,	0.637501,	-0.988586,	0.265053,	0.693411,	-0.105252,	0.670217,	0.688528,	0.149510,	0.569689,	-0.152257,	0.552721,	-0.645680,	-0.402509,	-0.268410,	-0.684255,	-0.127537,	-0.530747,	0.294778,	-0.280496,	0.494491,	-0.236549,	-0.048616,	0.073580,	0.636647,	0.196936,	0.653493,	0.214026,	0.713370,	0.757866,	-0.258034,	-0.798822,	-0.705435,	-0.516526,	0.863826,	-0.182043,	-0.139134,	-0.555101,	-0.731925,	-0.068819,	0.968871,	-0.499252,	-0.206336,	-0.220801,	0.638844,	0.383709,	0.860591,	-0.752617,	0.778252,	0.681265,	0.777947,	0.194556,	0.452193,	0.273110,	-0.319315,	-0.107273,	-0.185583,	-0.211158,	-0.592334,	0.642506,	-0.489059,	-0.352886,	0.634022,	-0.373150,	-0.631397,	-0.760796,	-0.430830,	0.065828,	-0.818354,	-0.179662,	-0.465377,	-0.265847,	-0.591968,	-0.330302,	-0.267251,	-0.095065,	0.588916,	-0.916807,	0.519211,	0.781487,	-0.697501,	-0.239906,	-0.507797,	0.480087,	-0.533311,	0.147252,	-0.289285,	-0.374065,	0.800897,	-0.697439,	0.353618,	0.624744,	-0.739433,	0.840571,	-0.866939,	-0.327250,	-0.742180,	-0.477767,	0.774468,	0.567797,	0.478500,	0.052767,	0.874752,	0.383099,	-0.889706,	0.647450,	-0.547349,	0.067049,	0.292947,	0.930906,	-0.497116,	0.031709,	-0.391478,	0.729911,	0.865902,	-0.208594,	0.392132,	-0.676015,	0.727653,	-0.284951,	0.770257,	-0.284890,	-0.939940,	-0.045869,	-0.918210,	-0.520798,	0.315897,	0.608936,	-0.348003,	0.762871,	-0.311720,	0.195471,	-0.363384,	0.986511,	-0.744438,	0.476058,	0.781060,	0.817255,	1.599881,	0.715323,	0.901914,	0.974059,	-0.830439,	-0.575610,	0.904050,	0.426984,	0.889645,	0.656431,	0.144932,	-0.446150,	-0.020173,	0.914609,	-0.040620,	0.816095,	0.658498,	-0.263222,	0.156835,	0.516831,	-0.178442,	0.017853,	0.303751,	0.203711,	-0.914792,	-0.867183,	0.603870,	-0.721832,	-0.793085,	0.923826,	0.188452,	-0.625233,	-0.802118,	-0.388104,	-0.370891,	0.072543,	-0.560350,	-0.301675,	-0.513840,	0.500351,	-0.883358,	0.915342,	-0.295877,	0.399701,	-0.721549,	0.291299,	-0.332377,	-0.792596,	-0.157384,	0.391034,	-0.269814,	0.719413,	-0.148228,	-0.205481,	0.027863,	-0.100131,	-0.702811,	0.876522,	-0.609668,	-0.602954,	-0.178808,	0.949400,	0.162939,	0.328532,	0.610950,	-0.168432,	-0.249550,	0.898862,	0.796075,	-0.095309,	0.696646,	-0.588733,	0.662771,	-0.278970,	0.111118,	-0.762932,	0.997070,	-0.775384,	0.256752,	0.303751,	0.868892,	-0.352153,	-0.890927,	0.665639,	-0.829340,	0.146519,	0.701834,	0.719169,	0.221961,	0.235633,	0.068941,	-0.375042,	0.753105,	0.088473,	0.597766,	0.499252,	0.580187,	-0.238563,	0.604358,	-0.062288,	0.284158,	-0.592700,	0.944151,	0.433943,	0.206092,	-0.461104,	0.470077,	-0.746025,	0.071566,	-0.593493,	-0.848933,	0.332072,	-0.443953,	0.550768,	-0.336833,	0.746574,	-0.895077,	-0.406171,	-0.734428,	0.341716,	-0.680959,	-0.668264,	0.774834,	0.056001,	0.219886,	0.189245,	0.448347,	-0.479904,	0.705680,	-0.898679,	-0.408429,	-0.513413,	-0.488144,	-0.117527,	-0.300211,	-0.345500,	-0.012604,	0.146764,	-0.052644,	-0.549058,	0.000580,	0.841365,	0.837458,	0.332011,	-0.714408,	-0.544359,	0.824519,	-0.834223,	-0.456282,	0.969054,	-0.278359,	-0.739921,	-0.390855,	-0.401105,	-0.294229,	0.597095,	-0.998657,	-0.587756,	-0.267251,	-0.162938,	0.760150,	0.863399,	0.175634,	-0.344707,	0.649647,	-0.681082,	-0.502609,	-0.027924,	-0.190039,	0.634938,	-0.228004,	0.640919,	0.845149,	-0.154027,	0.865169,	0.155553,	-0.998779,	0.031037,	0.087741,	-0.060518,	0.938719,	-0.582934,	-0.865169,	0.779656,	-0.319498,	-0.216285,	-0.877987,	0.967294,	0.439863,	0.230811,	-0.468368,	0.708365,	-0.361431,	-0.627735,	-0.117649,	0.366192,	0.430341,	0.017975,	-0.066866,	-0.902036,	-0.960631,	-0.593860,	-0.764458,	-0.550707,	-0.771294,	-0.950255,	-0.154027,	0.467269,	-0.790643,	-0.742241,	-0.990051,	0.896298,	0.304056,	0.395550,	-0.367290,	-0.982116,	-0.323649,	-0.054720,	-0.653615,	0.698416,	0.440107,	-0.569628,	-0.011932,	0.204810,	-0.541368,	0.265297,	0.300089,	-0.645924,	0.149449,	0.593310,	-0.334391,	-0.443831,	0.603992,	0.175939,	-0.307962,	0.314188,	0.337443,	-0.605335,	-0.545702,	0.744255,	-0.021088,	-0.570605,	-0.789117,	-0.322794,	-0.783685,	-0.325663,	0.405133,	0.905210,	-0.692618,	-0.544908,	0.764092,	-0.865352,	-0.530625,	0.109226,	0.307535,	-0.790338,	-0.539598,	0.492050,	-0.920347,	0.166479,	-0.335246,	-0.028718,	0.416059,	0.683157,	0.994507,	-0.028046,	0.557909,	-0.513962,	-0.080233,	0.135105,	0.426984,	-0.724052,	0.941099,	0.151952,	0.372600,	-0.264077,	-0.185156,	-0.663930,	-0.295450,	0.184057,	-0.154393,	0.997436,	-0.177160,	-0.567186,	0.557543,	-0.322062,	0.758171,	-0.581225,
		-0.943541,	0.314860,	-0.065401,	0.163121,	-0.603198,	-0.609424,	0.968514,	0.627735,	0.264016,	-0.865413,	-0.687857,	-0.972167,	0.286782,	0.837947,	0.563219,	-0.835505,	-0.710196,	0.343669,	0.239723,	0.338603,	0.801141,	-0.224220,	0.846004,	-0.590320,	0.125197,	0.568651,	-0.967040,	0.562181,	-0.703238,	-0.140294,	0.670461,	-0.659597,	-0.396801,	-0.691702,	0.640736,	0.516404,	0.328410,	0.402570,	-0.831843,	0.351360,	0.028413,	-0.683340,	-0.503647,	0.815180,	0.312052,	-0.617481,	0.724845,	0.324503,	-0.218604,	0.235694,	0.619434,	0.563768,	-0.560594,	-0.299051,	0.206763,	-0.050203,	0.543992,	-0.522080,	0.967223,	-0.695653,	-0.157994,	0.690115,	0.437544,	0.295450,	0.494430,	0.359722,	-0.963622,	0.211219,	0.005036,	0.870907,	-0.075228,	-0.371990,	-0.534166,	-0.516404,	0.714469,	0.535813,	-0.568529,	-0.039216,	0.836238,	-0.517136,	0.734794,	-0.628590,	-0.618763,	-0.697501,	-0.443709,	0.131626,	-0.773186,	-0.015412,	-0.939512,	0.346904,	0.260781,	0.253700,	0.910398,	0.517380,	-0.485031,	0.417096,	0.973998,	-0.331278,	-0.977599,	0.044893,	0.534532,	0.971984,	-0.791009,	-0.955931,	-0.683035,	-0.086886,	0.632923,	-0.309610,	-0.356304,	-0.922910,	-0.115818,	0.179235,	0.031220,	0.606799,	0.457381,	-0.741447,	-0.458968,	0.400250,	0.408734,	0.506699,	-0.802911,	-0.890439,	-0.388592,	-0.183203,	-0.218238,	0.002045,	0.420820,	0.651235,	0.323283,	0.747612,	0.562365,	0.627308,	0.587390,	-0.805597,	0.054781,	-0.001495,	-0.114841,	0.195593,	0.980834,	-0.408063,	-0.490219,	-0.451582,	-0.082003,	0.765679,	-0.885433,	0.110263,	-0.157506,	0.947996,	0.345256,	0.151952,	-0.682669,	-0.678701,	0.038240,	-0.987487,	-0.220557,	0.213050,	0.298379,	0.117344,	0.735588,	0.756035,	-0.232704,	0.420942,	-0.318094,	0.380779,	-0.603565,	0.339640,	0.558153,	0.702689,	-0.963988,	-0.766167,	-0.450362,	-0.634205,	0.153172,	0.504135,	0.049532,	0.406659,	0.991211,	-0.637196,	-0.406415,	0.699332,	-0.517014,	-0.655873,	0.580126,	-0.953978,	0.230782,	0.614978,	-0.412458,	-0.525864,	0.865108,	0.148900,	-0.897641,	-0.697623,	0.398737,	0.826105,	0.469527,	-0.459761,	0.757195,	-0.478683,	-0.122227,	0.180578,	0.197852,	-0.756768,	0.193396,	-0.049898,	-0.740043,	-0.613941,	0.453108,	-0.920774,	0.229957,	-0.842097,	-0.169530,	0.653798,	-0.968932,	0.246925,	-0.113010,	-0.888852,	-0.015473,	-0.211707,	-0.078951,	-0.555769,	0.449080,	-0.305216,	-0.773186,	-0.326334,	-0.347331,	-0.587390,	-0.923948,	0.153111,	-0.972594,	0.165807,	0.235023,	0.268593,	0.361309,	-0.248390,	0.828608,	0.095309,	-0.921323,	-0.051363,	0.365459,	-0.426984,	0.962218,	-0.398541,	0.735160,	0.764885,	-0.371380,	-0.557299,	-0.009552,	-0.240638,	-0.928892,	-0.283303,	-0.272317,	-0.219825,	0.580248,	0.665822,	-0.123081,	0.065523,	0.356670,	0.942869,	-0.285012,	0.079073,	-0.872433,	0.011811,	0.913388,	-0.384320,	0.079623,	-0.400800,	-0.565844,	0.364299,	0.420331,	0.258827,	0.085910,	-0.509934,	0.881771,	0.111972,	0.552232,	0.798883,	0.477279,	-0.173315,	0.705313,	0.045686,	0.825129,	0.896786,	0.017670,	-0.048860,	-0.649220,	-0.715079,	0.883297,	-0.513657,	-0.319132,	-0.508652,	0.662099,	0.990661,	0.540757,	-0.889462,	0.259133,	-0.316752,	-0.531480,	0.938963,	0.051729,	-0.867367,	0.658498,	0.695914,	0.976379,	-0.755119,	-0.754997,	-0.579577,	-0.411115,	0.334208,	-0.658864,	0.606250,	0.909177,	-0.162084,	0.143529,	-0.862545,	-0.136204,	-0.761101,	-0.584460,	0.087924,	-0.861080,	-0.243019,	0.662832,	0.445540,	0.255776,	0.372600,	-0.687918,	-0.174108,	-0.318820,	0.745232,	0.206275,	-0.763909,	0.785211,	0.588366,	-0.270852,	-0.048189,	-0.538926,	0.064608,	0.870785,	-0.429792,	0.214820,	0.762139,	0.546983,	-0.698599,	0.541856,	-0.183752,	-0.514343,	-0.439436,	0.401288,	0.737724,	-0.008271,	-0.077120,	0.599475,	-0.489425,	0.188628,	0.504929,	0.896909,	-0.477706,	0.049654,	0.834162,	-0.349834,	-0.112033,	-0.466475,	-0.731429,	-0.198889,	0.731925,	0.130894,	-0.969054,	-0.973144,	-0.011383,	0.140355,	-0.082736,	0.862056,	-0.713858,	0.983947,	-0.255226,	0.605884,	-0.526780,	0.873898,	0.600024,	0.827937,	-0.645798,	0.859249,	-0.049593,	0.282876,	0.193091,	-0.436995,	-0.318155,	-0.951170,	-0.450301,	-0.076205,	-0.876156,	-0.299722,	-0.989502,	0.253639,	-0.873348,	-0.671499,	-0.623768,	0.924741,	-0.749809,	0.223121,	-0.130833,	0.997681,	-0.869869,	0.025178,	0.922483,	0.103549,	0.081332,	-0.833918,	-0.885861,	-0.107700,	0.002411,	0.403912,	-0.192236,	0.360271,	-0.356243,	0.269814,	0.062716,	-0.631092,	-0.699088,	-0.762444,	-0.622913,	0.667470,	-0.003449,	0.427534,	0.824274,	0.732170,	0.213172,	-0.341166,	0.146886,	-0.265847,	0.239051,	0.661611,	-0.629383,	0.949095,	-0.810297,	0.261513,	0.499680,	-0.079928,	0.768609,	-0.649953,	-0.143345,	-0.311991,	0.826899,	0.452071,	0.629994,	-0.600391,	0.788507,	-0.296670,	0.190344,	0.608020,	-0.000641,	0.051363,	-0.260598,	0.576098,	-0.934141,	-0.509384,	0.853084,	0.897397,	-0.756523,	-0.853877,	0.481796,	0.745293,	-0.060762,	-0.983459,	0.970214,	-0.936705,	-0.610462,	0.190466,	0.658864,	-0.989807,	0.576525,	-0.652394,	-0.369060,	0.970519,	-0.555040,	0.357585,	0.165197,	-0.555345,	-0.517258,	0.788995,	0.459212,	0.130345,	-0.273049,	0.141087,	-0.816157,	0.507492,	0.258095,	-0.353668,	-0.566576,	0.240089,	0.245399,	0.206885,	-0.368511,	0.706595,	0.605274,	-0.975158,	-0.042695,	-0.028108,	0.335490,	0.494369,	-0.146397,	0.513047,	0.587695,	0.411298,	-0.820368,	-1.310364,	-0.459273,	-0.431745,	0.570177,	0.525071,	0.137242,	0.794855,	-0.434919,	1190.173584,	-0.254189,	0.220252,	0.070467,	-0.117893,	-0.188025,	0.571703,	-0.285745,	-0.186560,	0.559255,	-0.679922,	0.658986,	0.929136,	0.804010,	-0.514145,	0.434065,	-0.131504,	-0.053987,	-0.082308,	0.350139,	0.130222,	0.197119,	0.855953,	0.057955,	0.646107,	0.110874,	-0.405622,	-0.071676,	-0.766900,	-0.524949,	0.051424,	-0.983703,	-0.762322,	0.630787,	-0.935484,	0.571581,	0.682974,	0.278848,	-0.780511,	-0.343065,	0.233131,	0.837825,	-0.972777,	0.439741,	-0.713553,	-0.585253,	0.261391,	-0.684988,	0.509629,	-0.547960,	-0.732414,	0.226966,	0.126011,	-0.887692,	0.059053,	0.633534,	0.270669,	-0.535691,	0.008637,	-0.321390,	0.723685,	0.531846,	-0.046876,	-0.866268,	0.335429,	0.268899,	-0.487472,	0.671926,	-0.544664,	0.522446,	-0.537095,	0.035493,	-0.322550,	-0.953490,	-0.067599,	-0.338359,	0.214576,	-0.370403,	0.275674,	0.327250,	-0.786065,	-0.602832,	-0.586230,	-0.624805,	-0.673025,	-0.646657,	0.460616,	0.086581,	-0.155126,	-0.777276,	0.446333,	-0.241920,	0.714042,	0.655812,	0.951781,	-0.949400,	0.741822,	-0.140049,	0.464949,	0.168981,	-0.692862,	-0.281045,	0.273171,	0.436262,	-0.112949,	0.463179,	0.702017,	0.825373,	0.712027,	0.952818,	-0.484420,	0.010224,	0.863033,	-0.362774,	-0.711661,	-0.501450,	-0.877743,	-0.747368,	-0.437056,	0.409772,	-0.109287,	0.320170,	0.605152,	-0.540757,	-0.516160,	-0.492538,	0.569079,	0.712821,	-0.880612,	-0.083895,	0.885311,	0.672658,	-0.091098,	-0.642750,	-0.316141,	-0.741874,	0.165258,	-0.321940,	0.065096,	0.243812,	0.339885,	-0.798761,	-0.969604,	-0.283975,	-0.099460,	-0.659291,	-0.114109,	0.113071,	-0.536363,	-0.544725,	-0.068880,	0.408246,	-0.036092,	-0.996765,	0.245399,	0.001312,	-0.124424,	-0.939940,	-0.615650,	0.878475,	-0.306558,	0.262185,	-0.200659,	-0.394879,	-0.506577,	-0.761345,	0.791314,	-0.287332,	-0.622303,	0.594104,	0.813227,	0.042390,	-0.778375,	0.504440,	0.932066,	-0.390728,	0.332926,	0.988647,	0.263588,	0.547349,	0.865230,	0.918821,	-0.807550,	-0.300272,	-0.702322,	0.831050,	-0.810236,	0.464972,	-0.706168,	-0.400739,	-0.959227,	-0.881466,	0.251381,	0.035249,	0.295511,	0.201453,	0.856197,	-0.523179,	-0.245888,	-0.176306,	-0.047334,	0.426557,	-0.199744,	0.159215,	0.043306,	-0.695914,	0.394696,	0.666982,	-0.271035,	0.374371,	-0.459029,	-0.057466,	0.403607,	0.913205,	0.037019,	0.714408,	-0.484725,	0.675100,	-0.676382,	-0.452437,	-0.293924,	-0.276894,	0.244413,	-0.183752,	0.143407,	-0.314920,	-0.475326,	-0.491134,	-0.645070,	0.498031,	-0.206519,	0.427656,	-0.119175,	-0.296731,	-0.057161,	0.344768,	0.053499,	0.354839,	-0.344768,	0.678701,	-0.779962,	0.603870,	0.900326,	-0.747795,
		-0.282022,	-0.979064,	0.217139,	0.694876,	-0.082675,	0.719535,	0.594714,	0.052767,	-0.358013,	0.342387,	0.761773,	0.167455,	0.282022,	0.973937,	0.700308,	0.387371,	0.910337,	-0.958922,	-0.806940,	-0.826594,	0.715445,	0.264565,	0.219886,	0.161901,	-0.936827,	0.723380,	0.013031,	0.246437,	-0.499985,	0.095675,	-0.413862,	-0.757500,	-0.989990,	-0.862850,	0.547838,	-0.303629,	0.838435,	0.460921,	-0.986877,	0.400800,	0.193823,	0.680105,	-0.575121,	0.180334,	-0.857601,	0.976440,	-0.901914,	-0.490829,	0.005097,	0.157262,	-0.700797,	0.522568,	-0.427839,	-0.736747,	-0.327067,	0.986267,	-0.554125,	-0.210852,	-0.170202,	0.784783,	0.825251,	0.580676,	0.905637,	0.492050,	-0.956114,	-0.530747,	0.906552,	0.586596,	0.175390,	0.708365,	0.651784,	0.873409,	-0.983581,	0.271950,	0.126438,	0.675893,	446.941772,	0.079806,	0.056612,	-0.640797,	-0.315226,	-0.789666,	0.520432,	-0.251137,	-0.870724,	-0.835259,	-0.593982,	0.005707,	0.137730,	-0.755913,	0.529954,	0.520737,	-0.985534,	-0.897702,	0.228309,	-0.608081,	-0.853755,	0.537339,	0.233131,	-0.954405,	-0.612171,	-0.416669,	-0.354106,	-0.416118,	0.327128,	0.966124,	-0.178137,	-0.712821,	0.741325,	-0.016266,	0.976684,	0.234840,	-0.442854,	-0.123447,	0.328043,	0.938900,	-0.372417,	-0.253151,	0.585620,	0.220863,	0.637196,	-0.907407,	0.600208,	0.493942,	-0.550829,	0.016633,	0.986450,	0.145787,	-0.793756,	-0.826167,	0.530076,	-0.433760,	-0.502304,	0.520127,	0.193152,	0.381878,	0.905637,	0.923154,	0.529798,	0.460250,	0.242531,	-0.299539,	-0.678518,	0.245949,	-0.207312,	0.144688,	-0.744377,	0.991394,	0.870174,	0.099887,	0.440657,	0.444624,	-0.994751,	-0.348430,	-0.410077,	0.556383,	-0.926817,	0.992004,	0.674612,	0.769768,	-0.324442,	0.523911,	0.862423,	-0.546434,	-0.910581,	0.265114,	0.553941,	-0.956298,	0.094211,	0.616321,	-0.670766,	-0.546739,	-0.009114,	-0.445296,	0.617237,	-0.685171,	-0.875729,	0.315958,	0.899472,	-0.382122,	0.222755,	0.626637,	0.262734,	-0.697562,	-0.134434,	-0.449690,	0.110935,	-0.627430,	0.392804,	-0.990600,	0.849910,	-0.907712,	-0.431623,	0.044893,	-0.642628,	0.825312,	0.309976,	0.877438,	-0.949156,	-0.917905,	-0.202307,	0.831172,	0.364910,	0.337016,	0.273904,	-0.816340,	0.452071,	-0.823603,	0.847407,	-0.995788,	-0.010750,	-0.657643,	0.613697,	-0.957579,	-0.594165,	-0.767632,	0.404096,	-0.269204,	-0.162450,	0.419721,	-0.523179,	0.362346,	-0.868038,	0.754753,	0.461287,	-0.493026,	-0.794855,	0.611621,	0.604486,	-0.271279,	0.069247,	-0.158727,	0.483383,	0.665883,	0.841731,	-0.005158,	744.568176,	-0.462935,	0.476974,	-0.621937,	0.819941,	-0.864315,	0.033051,	-0.498886,	0.533555,	0.375286,	-0.713553,	0.484970,	0.369366,	-0.552599,	-0.493454,	-0.012787,	-0.043245,	0.656728,	-0.797052,	-0.789422,	0.493454,	0.992615,	0.658071,	0.555101,	0.038057,	-0.496933,	0.056856,	0.477950,	-0.819025,	-0.468917,	-0.972228,	0.122532,	-0.592883,	0.877071,	0.405255,	-0.720389,	-0.537828,	-0.050813,	0.027680,	0.243202,	0.035676,	0.965270,	-0.616382,	-0.876949,	0.072482,	0.267067,	0.917417,	-0.822810,	-0.973754,	0.811029,	0.807550,	-0.274087,	0.366619,	0.896786,	-0.969054,	-0.788934,	0.652028,	0.196997,	-0.476058,	-0.038606,	-0.517075,	-0.850032,	0.253774,	-0.771599,	0.645070,	0.778375,	0.012787,	0.053438,	-0.242775,	0.995972,	-0.251686,	0.530015,	0.735710,	0.465377,	-0.761223,	-0.977783,	0.386883,	0.069124,	0.931700,	-0.095859,	-0.558153,	-0.943907,	-0.247230,	-0.620594,	-0.655202,	-0.072970,	0.701468,	-0.052889,	-0.892270,	-0.880428,	-0.956786,	-0.926695,	-0.456160,	-0.441877,	0.912534,	0.633229,	-0.807001,	0.128208,	-0.861934,	0.684439,	-0.749687,	0.139744,	0.103610,	0.135350,	-0.188086,	-0.159093,	0.456038,	-0.129490,	0.748650,	-0.954588,	-0.526170,	0.895199,	-0.477706,	0.935667,	-0.091708,	-0.937803,	-0.745170,	-0.896664,	-0.890622,	0.943480,	-0.635365,	0.892514,	-0.749992,	0.408063,	0.081088,	-0.896237,	0.459822,	0.470321,	-0.848811,	-0.873714,	-0.318094,	-0.030122,	0.049532,	-0.443220,	-0.933159,	-0.354228,	0.005036,	-0.630360,	0.701834,	-0.831721,	-0.843684,	-0.299539,	-0.469283,	-0.310221,	-0.851131,	-0.694632,	-0.793756,	-0.522202,	0.485824,	-0.241615,	0.757256,	-0.807306,	0.944440,	-0.550279,	0.842036,	0.372173,	0.374493,	0.447493,	-0.586413,	-0.314493,	0.868510,	-0.715140,	-0.392376,	0.519700,	0.825190,	-0.264016,	-0.334513,	0.460189,	-0.381817,	0.642018,	-0.294900,	0.228675,	0.170934,	0.851131,	-0.848445,	0.640126,	-0.234413,	0.333903,	-0.358745,	-0.857601,	-0.010712,	-0.462996,	-0.790094,	0.500107,	0.932493,	0.037874,	0.579516,	-0.814988,	0.266213,	0.562426,	-0.645558,	0.037080,	-0.488876,	-0.571398,	0.941221,	0.756279,	0.810175,	-0.521531,	0.001984,	0.790033,	0.517258,	0.560778,	-0.742607,	0.176977,	0.916074,	-0.373272,	-0.551744,	0.910642,	0.378704,	-0.497909,	-0.729545,	0.384625,	-0.720450,	0.396832,	-0.905148,	-0.516709,	-0.025117,	-0.783929,	-0.714835,	0.878414,	0.161168,	0.734245,	0.925535,	0.095798,	-0.074374,	-0.305338,	-0.229102,	0.914426,	-0.200171,	-0.101901,	-0.767083,	-0.340861,	0.130345,	-0.658742,	-0.787164,	-0.048677,	-0.922422,	-0.530747,	0.595141,	0.478378,	-0.442976,	-0.396527,	0.213477,	-0.654469,	0.433271,	0.607837,	0.102084,	-0.427534,	0.281350,	0.855892,	-0.155614,	-0.703665,	-0.973449,	0.561022,	-0.167699,	-0.755058,	-0.224342,	-0.467208,	0.247780,	-0.958556,	0.152257,	0.421125,	-0.420515,	0.904050,	-0.551805,	0.511338,	-0.512253,	0.302164,	0.904294,	0.133030,	-0.171117,	0.132908,	-0.568041,	0.743950,	0.652455,	-0.021210,	0.089511,	0.752556,	0.983947,	-0.989746,	-0.376080,	0.141331,	-0.795221,	0.095798,	0.392193,	-0.046480,	0.842891,	-0.319559,	0.973998,	-0.294778,	0.585009,	0.997375,	0.787774,	0.786248,	0.325482,	-0.826411,	-0.975951,	0.911374,	0.061312,	-0.207495,	-0.793023,	-0.314982,	-0.551134,	-0.523667,	-0.302652,	0.342021,	0.831965,	0.050447,	-0.550035,	-0.274087,	-0.444624,	0.851985,	-0.663147,	-0.430952,	0.376812,	0.745903,	0.350383,	-0.865230,	-0.212195,	0.410504,	1.090861,	0.286660,	-0.941465,	0.454451,	-0.810785,	-0.955199,	-0.183203,	-0.070772,	0.973693,	0.694082,	0.974853,	0.797845,	-0.640736,	0.504562,	0.817011,	0.923215,	-0.390484,	-0.871456,	-0.940855,	-0.860897,	0.278848,	0.735649,	0.693899,	0.965148,	0.317667,	0.948119,	0.432966,	0.528428,	-0.444136,	0.640553,	-0.439802,	-0.744133,	0.878048,	0.664235,	0.006867,	0.897580,	-0.597888,	-0.439436,	-0.537584,	-0.555101,	0.975219,	-0.675161,	0.332499,	-0.493942,	-0.702750,	-0.716483,	0.357524,	-0.299478,	-0.012665,	-0.852901,	-0.296243,	0.636036,	0.902768,	-0.698477,	0.339457,	0.029939,	-0.974731,	-0.599902,	0.508652,	0.537584,	-0.774041,	-0.681143,	0.115574,	0.849971,	-0.778497,	-0.462264,	-0.169225,	-0.375896,	0.034394,	-0.990234,	-0.266579,	0.807123,	0.269448,	-0.418439,	0.300699,	-0.082186,	-0.480575,	-0.973632,	-0.442793,	-0.152135,	-0.787835,	-0.246376,	-0.802240,	-0.255348,	0.210852,	-0.743767,	-0.505661,	-0.460860,	-0.518174,	-0.640919,	-0.198401,	-0.319926,	-0.859554,	0.330424,	0.471969,	0.638539,	0.188635,	0.919370,	0.993652,	-0.256081,	0.256325,	0.381268,	0.163549,	-0.085360,	-0.340495,	-0.445479,	-0.891598,	-0.154027,	-0.913205,	-0.950072,	0.965514,	0.217261,	-0.772210,	-0.383526,	0.035920,	-0.518784,	-0.345134,	0.744743,	0.223670,	-0.202124,	-0.728141,	0.571703,	-0.427900,	0.675222,	-0.358379,	-0.851619,	0.710013,	0.879940,	-0.495651,	0.133763,	0.021271,	0.179357,	-0.199133,	0.976257,	-0.650975,	-0.521043,	-0.488815,	0.646535,	-0.952696,	0.916074,	-0.377056,	0.983764,	0.194128,	0.473251,	-0.459395,	0.716788,	0.775262,	0.674245,	-0.751152,	0.224586,	-0.345195,	-0.076205,	-0.458254,	0.096957,	-0.857234,	0.054720,	-0.365764,	-0.441633,	-0.027253,	0.644826,	0.475529,	-0.181799,	-0.497848,	-0.334758,	0.963500,	0.408429,	0.948302,	-0.976012,	-0.247230,	-0.427107,	0.471236,	0.566027,	-0.686148,	0.769524,	-0.082675,	-0.907102,	-0.780511,	0.347819,	0.035432,	-0.035066,	-0.430464,	0.465743,	-0.022309,	-0.152928,	-0.997375,	0.306497,	-0.100925,	0.162818,	0.585620,	-0.341472,	0.465743,	-0.183386,	-0.105075,	-0.077670,	0.087191,	0.749077,	0.602100,	0.604175,	-0.317179,	0.886288,
		-0.125156,	0.361553,	-0.203284,	0.046419,	0.908200,	0.661733,	-0.127903,	-0.634205,	0.895749,	-0.884396,	0.498581,	-0.193213,	-0.243873,	0.550829,	0.444807,	0.310465,	-0.075167,	0.884335,	-0.711417,	-0.843745,	0.525498,	-0.140477,	-0.542955,	-0.908933,	0.232398,	-0.291543,	0.489669,	-0.209449,	0.136998,	-0.197790,	-0.663808,	0.214576,	0.930784,	0.352763,	-0.497177,	0.420209,	-0.283242,	-0.772759,	0.857662,	-0.606067,	0.763237,	0.938719,	0.909360,	0.466048,	-0.489853,	-0.125278,	-0.628956,	0.869076,	0.143345,	0.827082,	0.821711,	-0.995727,	0.046175,	0.884518,	-0.722770,	-0.023408,	-0.556078,	-0.248817,	-0.514512,	0.962157,	-0.448775,	0.553880,	0.754692,	0.970397,	-0.463912,	0.199377,	0.131077,	0.562853,	-0.386761,	-0.654530,	0.735832,	0.091952,	0.578234,	-0.952147,	0.074801,	0.021210,	-0.904111,	0.145054,	0.133885,	-0.109409,	-0.944884,	0.443831,	0.071017,	-0.511399,	0.302530,	-0.230995,	-0.680593,	0.793817,	-0.932859,	-0.062227,	-0.086947,	0.248695,	-0.609912,	-0.277139,	-0.153172,	-0.072359,	-0.130772,	-0.133274,	0.285379,	-0.837642,	-0.966369,	0.208411,	0.430891,	-0.813227,	-0.340312,	-0.013215,	0.864742,	0.363445,	-0.660085,	-0.618274,	-0.826838,	0.555223,	-0.380651,	-0.643849,	0.671865,	0.203467,	-0.988342,	-0.138646,	0.039155,	0.676138,	0.202246,	-0.532090,	0.673269,	-0.552477,	0.761650,	0.485519,	-0.416059,	0.672781,	-0.329203,	0.632618,	0.632252,	0.719291,	0.976623,	-0.679739,	-0.070284,	-0.781976,	0.888974,	-0.388775,	0.211035,	-0.803705,	-0.368511,	-0.082553,	-0.008454,	0.855586,	0.359111,	0.498215,	0.322062,	0.555656,	0.453597,	0.822077,	0.954466,	-0.430647,	-0.488388,	0.853877,	0.729423,	0.168554,	-0.663869,	0.330485,	-0.000275,	-0.395367,	0.243995,	-0.912656,	-0.099277,	-0.453475,	-0.997070,	0.498093,	0.281594,	-0.462264,	0.709769,	-0.910276,	-0.891537,	0.036042,	-0.077792,	0.397076,	-0.846309,	-0.403180,	-0.642384,	0.116489,	0.781732,	-0.235694,	-0.529649,	0.624317,	0.645864,	0.231788,	-0.779534,	-0.079806,	-0.892575,	-0.165868,	-0.653432,	-0.940916,	0.190283,	-0.065279,	0.454634,	-0.866146,	0.882382,	-0.230445,	-0.763604,	-0.128819,	-0.401654,	0.310526,	-0.871456,	0.903317,	0.614246,	0.211219,	0.726249,	-0.221839,	0.287332,	0.396771,	0.262368,	-0.229957,	-0.126255,	0.861263,	-0.533067,	-0.446272,	0.756523,	0.234169,	-0.883541,	-0.195776,	0.895810,	-0.320963,	-0.411725,	0.785211,	0.314310,	-0.313028,	0.730888,	-0.012543,	0.431074,	-0.673574,	0.362896,	-0.118503,	-0.945738,	0.513413,	-0.285806,	0.845332,	-0.152196,	0.862850,	-0.879818,	-0.669240,	0.082125,	-0.314554,	0.282815,	0.330546,	-0.516709,	0.690725,	0.410504,	0.208472,	-0.008026,	-0.040193,	0.549608,	0.955748,	-0.754814,	0.750847,	-0.580737,	-0.065035,	-0.406795,	-0.302225,	-0.936583,	0.175878,	-0.536607,	-0.032380,	-0.368999,	-0.716666,	0.886288,	-0.064180,	-0.402020,	0.021699,	-0.008576,	0.944639,	0.743278,	0.637440,	0.290750,	0.705619,	0.190208,	-0.017975,	-0.441877,	-0.090609,	0.830927,	-0.500778,	0.120273,	0.604602,	0.642237,	-0.863277,	-0.630909,	-0.090854,	0.759941,	-0.752800,	0.310221,	-0.383892,	-0.994446,	-0.460433,	0.958373,	-0.743889,	0.851802,	-0.856319,	0.393597,	-0.820063,	-0.526231,	0.851070,	0.289712,	-0.777398,	-0.202857,	-0.406964,	-0.272011,	-0.487594,	0.321024,	0.221107,	0.108554,	0.986578,	-0.179601,	0.649098,	-0.027985,	0.176733,	-0.759758,	-0.577990,	0.543504,	-0.173498,	0.093112,	-0.226844,	-0.188086,	-0.096652,	-0.327006,	-0.768731,	-0.042573,	0.567431,	0.398724,	0.841975,	-0.061983,	-0.339702,	-0.402081,	-0.935850,	0.049715,	0.275552,	-0.953978,	0.405255,	0.271340,	0.973571,	0.570238,	-0.143162,	-0.792718,	0.203894,	-0.966247,	-0.806330,	-0.559740,	-0.502976,	-0.989502,	0.198889,	0.106540,	0.987732,	0.464278,	0.876644,	0.506943,	-0.166601,	-0.256081,	-0.283608,	-0.435408,	-0.910581,	-0.792230,	0.069979,	0.943968,	-0.396100,	-0.210669,	-0.295389,	0.641102,	0.494369,	-0.183508,	-0.405927,	0.860775,	0.769158,	0.398053,	-0.989257,	0.989624,	-0.344279,	0.688284,	0.981262,	-0.519456,	0.198889,	-0.656667,	-0.833125,	-0.540696,	-0.309854,	-0.518723,	0.233863,	-0.133641,	-0.507309,	-0.540880,	0.772759,	0.946470,	-0.177221,	0.777703,	0.832209,	-0.101901,	0.050386,	-0.570788,	-0.871700,	-0.504013,	0.082858,	-0.002289,	-0.008087,	-0.501328,	-0.608081,	0.826411,	-0.882992,	-0.346782,	-0.751274,	-0.436262,	0.172277,	0.110935,	0.727958,	-0.598743,	-0.661672,	0.065096,	0.043611,	-0.685354,	-0.166356,	0.424120,	-0.219764,	0.621754,	-0.509445,	-0.668081,	-0.419721,	-0.830683,	-0.554552,	0.349895,	0.851741,	-0.538499,	-0.996338,	0.109104,	-0.943052,	0.041353,	0.743950,	-0.749992,	0.147008,	0.439685,	0.922239,	-0.541612,	0.702261,	-0.997559,	-0.759941,	0.412030,	0.342692,	-0.014234,	-0.962096,	-0.550279,	-0.029450,	0.697195,	-0.022736,	-0.224036,	0.407392,	0.597522,	0.272866,	0.012543,	0.987671,	-0.993713,	0.539171,	0.911069,	0.672536,	0.392560,	0.311808,	0.037446,	-0.754570,	0.961608,	-0.692434,	0.242286,	-0.847835,	-0.614978,	0.485397,	0.727958,	-0.452131,	0.909238,	0.970214,	0.526902,	-0.886288,	-0.844417,	-0.097140,	-0.798334,	-0.794183,	0.924314,	-0.721610,	0.580981,	-0.101962,	0.314737,	0.834834,	0.342326,	0.482650,	-0.525315,	-0.944823,	-0.744072,	0.989746,	0.291238,	-0.654042,	0.900754,	0.289346,	0.335124,	-0.547166,	-0.334696,	-0.662526,	-0.628285,	-0.821894,	-0.152928,	-0.870113,	-0.248695,	0.460799,	-0.338969,	-0.075472,	0.989685,	0.882870,	0.971862,	-0.703299,	-0.146031,	0.663503,	0.560167,	-0.411298,	0.264016,	0.204321,	-0.262307,	0.315897,	0.322916,	0.248024,	0.121372,	0.092990,	0.788812,	-0.287759,	0.381085,	-0.357768,	0.301004,	-0.737724,	-0.228370,	0.445723,	-0.328104,	-0.315531,	-0.736503,	0.605090,	0.558458,	-0.877499,	0.082614,	0.470809,	0.824274,	0.240028,	0.473495,	-0.396771,	-0.093478,	-0.628895,	0.497299,	-0.371746,	0.498703,	0.721732,	-0.322245,	0.550340,	-0.137974,	-0.315531,	-0.693350,	-0.915647,	-0.920835,	0.329081,	0.223060,	0.570360,	-0.439009,	-0.869076,	-0.123814,	-0.968078,	-0.880001,	0.001129,	-0.512497,	0.942686,	0.922971,	0.678579,	-0.877926,	-0.739128,	-0.365520,	-0.450789,	-0.517441,	-0.702445,	0.064974,	0.952696,	0.238563,	0.978149,	0.634388,	0.039827,	-0.296060,	-0.938597,	0.965636,	-0.756035,	-0.326334,	-0.121677,	-0.081271,	-0.572619,	0.233802,	0.152196,	-0.620838,	-0.233680,	0.356365,	0.463973,	0.112873,	-0.562975,	-0.908078,	0.924375,	0.999634,	-0.835566,	-0.827387,	-0.384503,	-0.042024,	-0.302469,	-0.162572,	-0.635365,	-0.125401,	-0.728202,	0.692679,	-0.587756,	-0.150609,	-0.876095,	-0.579699,	-0.462752,	-0.930296,	-0.881649,	-0.853389,	-0.798028,	-0.373821,	0.550645,	0.282998,	-0.721122,	-0.417707,	0.188452,	0.652089,	0.921812,	0.610218,	0.613880,	0.711905,	-0.855647,	-0.494247,	0.928526,	-0.310221,	-0.331889,	-0.105197,	0.884762,	-0.561022,	0.601917,	-0.556566,	0.504990,	-0.169347,	-0.482955,	0.884457,	0.251991,	0.493332,	-0.521775,	0.172826,	-0.187902,	0.712455,	0.594897,	0.083041,	0.554796,	0.302774,	0.654164,	0.559496,	-0.270241,	-0.734184,	-0.601794,	0.133763,	-0.534410,	-0.954833,	0.009552,	-0.278909,	0.631214,	-0.808466,	0.364360,	-0.892392,	0.622974,	0.250587,	-0.380840,	-0.558153,	-0.859249,	0.686453,	0.691458,	0.042634,	-0.985839,	0.652028,	0.197363,	0.835994,	0.142064,	0.420331,	0.409101,	0.733085,	-0.391705,	0.287698,	0.794000,	-0.737724,	0.035432,	-0.237404,	-0.301553,	-0.231910,	-0.761040,	0.852168,	-0.260964,	-0.512009,	-0.754265,	-0.741508,	-0.537400,	0.821467,	-0.262978,	0.298135,	0.838740,	-0.897336,	-0.019440,	-0.643971,	-0.853145,	-0.810175,	0.313456,	-0.312113,	0.820185,	0.182775,	-0.762383,	-0.617847,	-0.190893,	0.582629,	-0.807855,	0.294961,	0.027009,	-0.794977,	-0.937193,	0.769768,	0.440107,	0.160253,	0.492965,	0.955504,	0.364605,	-0.788873,	0.057833,	0.533799,	-0.466353,	-0.176122,	0.364055,	-0.329997,	0.495529,	0.221473,	0.138096,	0.998230,	-0.092746,	-0.245766,	0.365093,	-0.545091,	0.284585,	-0.100803,	0.540757,	-0.227699,	0.772027,	0.200537,	0.099826,	0.444136,	0.494369,	0.464339,	-0.917966,	-0.022736,	-0.946715,	-0.480718,	-0.900815,	0.240394,	-0.269509,
		-0.142064,	0.665517,	0.722953,	-0.039216,	0.522323,	-0.046236,	0.517075,	0.636891,	-0.843989,	-0.960387,	-0.165868,	0.809015,	0.726554,	0.696890,	-0.130345,	-0.658925,	0.233741,	-0.194250,	0.827509,	0.087374,	-0.281838,	0.437239,	0.917417,	0.149693,	-0.320719,	0.675588,	0.137547,	-0.219214,	-0.381878,	0.241737,	-0.345378,	-0.506575,	0.958129,	0.979553,	0.593982,	0.939879,	0.657643,	-0.731620,	-0.947386,	-0.877316,	0.826838,	0.423994,	-0.852473,	0.501022,	0.659963,	0.149266,	0.911069,	0.552782,	-0.002472,	-0.900510,	0.847041,	-0.642872,	0.829401,	-0.377239,	-0.040681,	0.759087,	0.051607,	0.738517,	-0.934446,	-0.322245,	-0.209693,	0.417096,	0.208533,	-0.877377,	0.603870,	-0.777093,	-0.022492,	-0.520920,	-0.123386,	0.382672,	-0.447249,	-0.374676,	0.716727,	0.342326,	-0.715445,	0.444807,	-0.329814,	0.874996,	0.620655,	0.295022,	0.564074,	0.801508,	-0.807245,	0.996094,	0.790521,	0.387493,	-0.122898,	-0.098849,	-0.654592,	0.478256,	-0.361187,	0.611866,	0.933226,	-0.565539,	0.974853,	-0.100070,	-0.549913,	-0.068575,	-0.233375,	-0.600696,	-0.840388,	0.683767,	0.355632,	-0.370403,	0.871151,	-0.841548,	-0.346049,	0.914243,	-0.564501,	0.339396,	-0.897580,	0.755852,	-0.130650,	-0.396466,	0.289102,	0.230995,	0.420393,	0.774834,	-0.959655,	0.967040,	-0.112583,	-0.585131,	-0.202857,	-0.736808,	-0.493820,	0.415387,	-0.911313,	0.919492,	0.714103,	-0.046846,	-0.083163,	-0.666128,	-0.893307,	0.871334,	-0.137730,	0.432905,	-0.102023,	-0.451216,	0.726859,	0.995788,	-0.803339,	-0.679678,	0.522935,	-0.064241,	0.411969,	0.510117,	-0.377300,	-0.898434,	0.100375,	0.140721,	-0.118809,	-0.839778,	0.566759,	-0.619068,	0.543077,	-0.875484,	-0.469230,	-0.206030,	-0.251991,	-0.912046,	0.175573,	0.448714,	-0.553819,	0.728568,	0.090279,	0.957640,	0.535997,	-0.854915,	0.967772,	0.501877,	0.036958,	0.588244,	-0.243202,	-0.091891,	-0.888974,	-0.352336,	-0.747124,	0.838008,	-0.256996,	0.459883,	-0.225684,	-0.846370,	0.894284,	-0.503037,	0.835078,	0.521470,	-0.058565,	0.501083,	0.592883,	-0.683279,	0.212928,	-0.875301,	0.176855,	0.891354,	0.435346,	-0.158422,	-0.793756,	0.267373,	0.902646,	0.688589,	-0.186804,	-0.680898,	0.180517,	0.403180,	-0.518357,	-0.494369,	-0.841609,	-0.482772,	0.015717,	0.216712,	0.261757,	-0.029633,	0.948668,	-0.205481,	0.636647,	0.805902,	0.706595,	-0.706107,	-0.880245,	0.510422,	-0.161962,	0.042817,	-0.193762,	-0.438520,	-0.377300,	-0.933470,	0.027314,	-0.256203,	0.371380,	-0.562243,	-0.449385,	-0.201880,	0.729850,	-0.385723,	0.816157,	-0.035493,	0.299539,	0.828181,	-0.981017,	0.982299,	0.886471,	0.588061,	-0.146702,	0.110202,	0.692068,	-0.643178,	-0.272011,	-0.272011,	0.757866,	0.468307,	0.267983,	-0.917234,	-0.023774,	0.343730,	-0.086764,	0.742485,	-0.019562,	-0.927427,	0.427656,	0.318583,	0.225990,	0.418561,	-0.869137,	-0.978820,	0.575610,	-0.686453,	0.665090,	-0.391461,	-0.298990,	-0.096469,	-0.890744,	-0.706656,	0.613636,	0.206458,	0.254494,	0.168859,	-0.363994,	0.446577,	0.850459,	0.716971,	0.128147,	-0.872860,	0.638539,	0.960875,	-0.720634,	-0.096347,	-0.018403,	0.824458,	-0.720206,	-0.679922,	0.904477,	0.261635,	-0.817316,	0.471847,	0.356731,	0.717643,	0.770806,	0.655812,	-0.487073,	0.484359,	0.739494,	0.072115,	-0.091708,	-0.486557,	0.508286,	-0.361187,	0.264565,	0.248390,	-0.025727,	0.982177,	0.748650,	0.038911,	0.519028,	0.665578,	0.546312,	-0.300272,	-0.419166,	-0.280923,	-0.478439,	-0.223487,	0.113193,	0.532212,	-0.211768,	-0.918699,	0.341363,	0.172399,	0.004059,	-0.940245,	-0.701590,	0.192236,	0.199988,	0.553331,	0.030488,	-0.013276,	-0.042512,	0.518052,	0.443953,	-0.235511,	-0.254616,	-0.736625,	-0.536729,	0.194556,	0.229713,	-0.227577,	0.194739,	0.791009,	-0.631214,	-0.332865,	0.281045,	0.099155,	0.105991,	-0.619367,	-0.364788,	-0.255531,	0.472152,	-0.901608,	-0.134617,	-0.592578,	0.911252,	0.032441,	0.703848,	0.786676,	0.640980,	0.589282,	-0.247597,	-0.387371,	-0.139073,	0.995178,	0.856746,	-0.224525,	-0.378765,	0.940916,	-0.578234,	0.627186,	0.163244,	-0.191382,	-0.018158,	-0.476547,	-0.454024,	0.043306,	0.335978,	0.665456,	-0.629933,	-0.769158,	-0.436750,	0.305216,	-0.588305,	-0.553819,	0.229041,	-0.623341,	-0.020844,	-0.566942,	0.095004,	-0.384747,	-0.195044,	0.178747,	-0.354106,	0.227821,	0.285134,	-0.554796,	0.745048,	-0.823969,	-0.121006,	-0.179601,	0.731254,	0.136021,	-0.518662,	-0.148839,	-0.730399,	-0.804559,	0.580248,	0.820856,	0.268838,	0.352031,	-0.988464,	0.734062,	0.177160,	-0.125095,	0.124973,	0.070467,	0.970275,	0.592334,	0.171178,	0.871517,	-0.857723,	0.166967,	-0.274331,	-0.279397,	-0.985900,	0.422468,	-0.040986,	0.181249,	-0.329997,	-0.216834,	-0.432112,	-0.745964,	-0.164586,	-0.110385,	-0.821223,	-0.583911,	0.009674,	0.452071,	-0.963500,	0.804987,	0.163976,	-0.594592,	0.790765,	-0.890683,	0.319071,	0.426801,	-0.807550,	-0.270424,	0.314005,	0.879025,	0.513230,	-0.229896,	0.078585,	0.242897,	-0.500519,	0.426374,	0.722953,	0.099460,	-0.325907,	-0.671255,	-0.244911,	-0.273782,	0.799860,	-0.593738,	0.740715,	0.368755,	0.312540,	-0.167943,	0.716178,	0.250771,	0.542283,	-0.386761,	-0.332019,	-0.615162,	0.530381,	-0.611499,	-0.606128,	0.246498,	0.257363,	-0.005707,	0.581721,	-0.625965,	0.093661,	-0.636280,	-0.300638,	-0.043123,	-0.715323,	0.319865,	-0.799554,	0.474166,	0.284524,	0.825739,	-0.313578,	-0.552904,	0.749077,	-0.745720,	-0.984130,	-0.632984,	0.002350,	0.240211,	0.465682,	-0.138401,	-0.212561,	-0.324015,	-0.008271,	-0.838252,	0.115635,	0.415815,	-0.631153,	-0.067904,	0.025178,	-0.752129,	-0.477767,	0.527085,	0.063326,	0.699759,	-0.637501,	-0.264870,	0.302835,	0.237526,	0.437483,	0.074313,	0.706595,	0.422590,	0.712455,	-0.299844,	-0.347575,	0.587512,	-0.207617,	-0.009613,	-0.569750,	-0.405988,	0.897519,	0.867122,	0.524461,	0.235878,	-0.094272,	0.920347,	-0.505722,	0.848018,	0.773736,	0.394391,	0.263955,	0.686270,	-0.350627,	0.100314,	-0.364361,	0.638050,	0.988464,	0.316568,	0.837458,	-0.171667,	-0.012848,	0.740410,	-0.080538,	-0.317606,	0.644276,	-0.447676,	0.809320,	0.008026,	-0.236000,	0.657216,	-0.159093,	0.659841,	0.213233,	-0.837764,	-0.431745,	-0.652089,	-0.254982,	0.157079,	0.676687,	-0.845698,	0.700858,	0.856380,	-0.195715,	0.317606,	0.904599,	-0.831538,	0.086459,	-0.149144,	-0.940001,	0.752373,	0.234840,	-0.446394,	0.965270,	-0.374920,	0.964599,	-0.019379,	-0.144627,	0.383038,	0.581408,	0.930418,	-0.812922,	-0.901547,	0.541490,	0.016022,	-0.822993,	0.954588,	0.796381,	-0.120029,	-0.593554,	-0.318949,	-0.264504,	-0.383587,	0.804987,	0.853755,	0.539293,	0.962767,	-0.674734,	0.118747,	0.754204,	0.823298,	0.622730,	0.406232,	0.903614,	0.687429,	0.049959,	-0.806207,	0.945921,	0.505234,	-0.718192,	-0.115879,	0.393109,	-0.418317,	-0.119480,	0.357708,	0.901608,	0.053865,	-0.884457,	0.764092,	-0.851436,	-0.487838,	0.349537,	-0.386029,	0.806024,	0.328654,	-0.696646,	0.234657,	-0.575610,	0.255043,	0.626145,	0.650929,	-0.960387,	-0.147557,	-0.715629,	0.954527,	0.314921,	-0.683889,	-0.517930,	-0.775628,	-0.970031,	0.256752,	0.422163,	0.060030,	0.731193,	-0.998657,	-0.774407,	0.790826,	0.353313,	0.976928,	-0.081942,	-0.576708,	0.627430,	0.737114,	-0.403546,	-0.610218,	0.085971,	-0.802362,	0.975890,	-0.840327,	0.477767,	0.640248,	-0.373516,	-0.222938,	0.406293,	-0.951659,	-0.784478,	0.385968,	-0.997497,	0.338664,	-0.935301,	0.807123,	0.445845,	0.048067,	-0.662648,	-0.772393,	-0.855037,	-0.958434,	0.166295,	0.066256,	0.391278,	0.801263,	0.036042,	0.077303,	0.297891,	0.860042,	-0.268593,	-0.244850,	-0.164403,	-0.057222,	-0.835322,	0.102145,	0.779962,	-0.623402,	-0.605396,	-0.178014,	0.379925,	0.333354,	-0.851070,	-0.998230,	0.562609,	-0.533616,	0.163671,	0.344890,	0.485031,	0.504868,	0.651051,	0.016266,	0.246315,	0.366924,	-0.791253,	-0.835078,	0.572741,	-0.644459,	0.483749,	0.183508,	0.287271,	-0.001434,	0.901486,	0.769158,	0.377728,	0.095675,	-0.225318,	-0.152501,	0.474044,	0.535020,	0.103732,	0.422895,	0.548998,	-0.557787,	0.380108,	-0.584094,	-0.346171,	-0.776727,	-0.292825,	-0.447066,	0.501389,	0.064913,	-0.450850,	-0.632130,	-0.290506,	0.454268,
		0.421979,	0.380413,	0.517136,	0.280923,	0.837886,	-0.487960,	-0.214332,	-0.917051,	0.816095,	-0.196692,	0.097507,	-0.999451,	-0.726920,	-0.506027,	0.765557,	0.998779,	-0.396100,	0.529405,	0.564379,	-0.077548,	0.766961,	0.554491,	-0.002512,	0.945860,	0.185888,	-0.540819,	-0.088412,	0.978881,	-0.219703,	0.536912,	0.271340,	-0.406720,	-0.562731,	-0.681448,	-0.093234,	-0.969115,	-0.762566,	0.145360,	-0.954588,	-0.144139,	0.746962,	-0.458296,	-0.557238,	-0.185766,	0.689749,	0.452254,	-0.077425,	0.463607,	-0.692251,	0.403851,	0.139378,	-0.866207,	0.729789,	-0.343730,	0.377117,	0.782891,	-0.346904,	0.403973,	0.194494,	-0.690420,	-0.344523,	-0.909848,	-0.268838,	0.886105,	-0.551561,	0.897946,	0.486190,	0.871761,	0.384320,	0.478500,	-0.618519,	0.872433,	-0.470626,	-0.019013,	0.923826,	-0.494064,	-0.383160,	0.445418,	-0.724357,	-0.562120,	0.190405,	-0.379192,	-0.950072,	0.248695,	-0.748405,	0.272622,	0.639027,	-0.304178,	-0.275552,	0.040071,	0.891781,	0.932676,	0.048311,	0.907163,	0.950865,	0.247047,	-0.788080,	-0.650624,	0.062471,	0.881954,	-0.457564,	-0.781060,	-0.828669,	-0.499741,	-0.440474,	0.430280,	-0.886776,	0.857417,	0.209327,	-0.490951,	-0.782097,	-0.757622,	0.789422,	-0.932432,	-0.865596,	0.251991,	-0.122227,	0.267251,	-0.308206,	-0.541307,	-0.421735,	-0.667226,	-0.392743,	-0.463973,	0.394696,	0.179601,	-0.145421,	0.403363,	-0.953490,	0.216407,	0.505356,	-0.047395,	0.538682,	-0.613269,	-0.145054,	-0.080294,	0.797174,	-0.489059,	0.646474,	0.462813,	-0.815729,	-0.008515,	-0.795099,	0.010407,	-0.795160,	0.943907,	0.293741,	-0.058992,	0.716300,	-0.183630,	-0.493271,	0.657887,	-0.044771,	0.560106,	0.007538,	0.620228,	0.693228,	-0.588000,	-0.570727,	0.894589,	0.833613,	0.355022,	-0.253090,	0.787469,	-0.238014,	0.314493,	-0.065340,	-0.876705,	0.764214,	-0.842708,	0.221107,	0.728996,	-0.178320,	0.553209,	-0.245338,	0.687735,	-0.900632,	0.761895,	0.491195,	-0.074374,	0.437422,	-0.591113,	-0.882523,	0.692251,	-0.841548,	-0.687857,	-0.178381,	-0.501877,	-0.495041,	-0.578722,	-0.275796,	0.072604,	0.016877,	-0.066439,	-0.218238,	-0.097507,	0.164220,	-0.352947,	0.975463,	0.916318,	0.545095,	0.615894,	0.597522,	-0.124912,	-0.036348,	0.167394,	0.447737,	-0.967345,	-0.244668,	-0.653798,	-0.247292,	0.628285,	0.274209,	-0.154027,	0.620228,	-0.226783,	-0.946165,	0.491928,	0.841060,	-0.704642,	-0.046602,	-0.663198,	-0.148778,	-0.897885,	-0.397137,	0.433088,	0.667104,	-0.373638,	-0.740593,	-0.657949,	-0.395184,	-0.083651,	0.787042,	0.445662,	0.598376,	-0.067110,	0.015107,	0.119724,	-0.072787,	-0.383953,	-0.211402,	0.834224,	0.166723,	0.283731,	0.022004,	0.241432,	-0.826350,	0.924863,	-0.930479,	0.314615,	0.919736,	0.949889,	-0.275369,	0.600513,	-0.015351,	-0.039827,	0.160375,	0.646962,	0.522446,	0.100253,	-0.875729,	-0.330485,	-0.487350,	-0.446394,	-0.300821,	0.518296,	-0.891049,	0.746696,	0.943236,	0.008271,	-0.101291,	-0.178869,	-0.279092,	0.675588,	-0.116001,	0.939390,	0.038728,	0.021516,	0.999023,	-0.016572,	0.196265,	0.308206,	-0.025788,	-0.787957,	-0.932859,	0.966735,	-0.638783,	-0.563707,	-0.179296,	0.681265,	-0.470016,	-0.722343,	0.397992,	-0.788080,	-0.548631,	0.070833,	-0.946287,	0.017853,	-0.922910,	-0.026887,	0.277871,	-0.256203,	-0.869808,	-0.156224,	-0.592273,	-0.367656,	-0.882015,	0.455061,	-0.755242,	0.924986,	-0.620106,	-0.402020,	0.987243,	-0.687124,	-0.016510,	0.645070,	0.791986,	0.502304,	0.280313,	-0.867489,	0.277749,	-0.045686,	-0.065584,	0.924802,	0.282144,	0.864315,	-0.764031,	0.523057,	0.185034,	-0.559069,	-0.487045,	-0.918577,	0.111301,	-0.450667,	-0.547655,	0.692251,	0.324137,	-0.220557,	0.144566,	0.503220,	-0.876949,	-0.996887,	0.662587,	-0.770135,	-0.441877,	-0.518357,	0.989135,	-0.375774,	0.272683,	-0.413312,	0.103732,	-0.536607,	0.787835,	-0.802850,	0.042756,	0.620167,	0.540941,	-0.165807,	-0.256142,	0.778069,	-0.010198,	0.596667,	-0.510666,	-0.646535,	-0.901730,	-0.039399,	-0.241798,	0.187292,	-0.244592,	0.504013,	-0.697928,	0.568651,	-0.280984,	0.619739,	0.255715,	-0.846980,	-0.412763,	0.279706,	-0.905026,	0.337626,	-0.554735,	0.911862,	-0.744194,	-0.344035,	0.169774,	0.453291,	0.224647,	-0.245033,	-0.499008,	-0.358440,	0.915036,	-0.484054,	0.928526,	0.606494,	0.141453,	-0.116600,	0.456099,	-0.174291,	0.003266,	0.962340,	-0.441633,	0.505661,	0.991455,	-0.051241,	-0.359478,	0.451033,	0.630482,	0.453902,	0.315348,	0.484848,	0.467757,	0.785699,	0.808344,	-0.517930,	-0.776666,	-0.250160,	0.805048,	-0.921445,	0.912290,	-0.467208,	0.051546,	0.118992,	-0.248146,	0.229530,	-0.978027,	-0.095431,	0.667104,	-0.422101,	-0.035432,	0.305277,	-0.794427,	0.463057,	0.639027,	-0.203345,	-0.324015,	-0.246681,	0.058016,	-0.514206,	-0.679434,	-0.968627,	0.545518,	0.187536,	-0.663686,	0.781487,	-0.577197,	0.614307,	0.555712,	0.597034,	0.637318,	-0.258461,	0.600269,	0.969848,	-0.355815,	-0.588549,	0.319315,	-0.776177,	-0.144749,	0.237526,	0.326457,	-0.843745,	-0.034028,	0.872555,	-0.554186,	0.947813,	0.474593,	-0.298257,	-0.118381,	0.904843,	0.704459,	-0.974670,	0.922239,	-0.403058,	0.643544,	0.790582,	-0.007782,	-0.049593,	0.912351,	-0.062044,	0.864620,	-0.137974,	-0.827021,	0.423078,	-0.154332,	0.894528,	0.293191,	-0.023530,	-0.255165,	-0.383404,	0.575182,	0.664418,	0.442366,	-0.849727,	-0.634938,	-0.687002,	-0.132969,	-0.512680,	0.352641,	0.858150,	0.196753,	0.138096,	-0.124912,	0.683401,	-0.905942,	-0.325541,	0.537706,	-0.990844,	0.789483,	-0.269448,	-0.537156,	-0.605152,	0.824458,	0.022004,	-0.518967,	0.416669,	-0.731803,	-0.051912,	0.575060,	0.584094,	0.218360,	-0.661977,	-0.108836,	-0.443220,	0.400006,	-0.095859,	-0.370769,	-0.275063,	0.674734,	-0.034944,	-0.876644,	-0.784539,	-0.727775,	0.000458,	0.427961,	0.386212,	0.557421,	-0.399579,	-0.281411,	0.871334,	0.144505,	-0.627674,	-0.177038,	-0.760552,	0.172033,	0.366436,	0.192663,	0.328288,	-0.450056,	0.584216,	-0.371014,	0.316874,	0.992370,	-0.869320,	0.075350,	0.598804,	-0.352825,	-0.425393,	0.788141,	0.518967,	-0.863033,	-0.923338,	-0.800653,	0.035981,	-0.178564,	0.851802,	-0.216529,	0.372600,	-0.904233,	0.523728,	-0.760430,	-0.282754,	0.536424,	-0.061251,	-0.696341,	0.038667,	-0.293374,	0.997375,	-0.498215,	0.076388,	-0.564440,	-0.931211,	-0.843257,	0.569750,	0.381756,	0.549974,	0.962096,	0.786920,	-0.305826,	0.130833,	-0.565966,	0.418195,	-0.415632,	0.330607,	0.555712,	-0.105564,	0.620289,	0.864437,	-0.075533,	-0.806207,	-0.444502,	0.405744,	-0.283731,	0.199866,	0.506638,	0.305277,	-0.221412,	0.671804,	-0.709891,	0.829401,	-0.835322,	0.891964,	-0.267800,	-0.519333,	-0.577624,	-0.949767,	-0.236061,	-0.036714,	-0.051668,	0.430280,	0.113681,	-0.645375,	0.721854,	0.458235,	-0.590014,	0.047517,	0.730033,	0.677969,	0.507065,	0.023286,	-0.603565,	-0.286355,	-0.154820,	0.020478,	-0.673025,	0.284402,	0.659230,	-0.840083,	-0.316385,	0.330851,	-0.153233,	-0.410504,	0.500351,	-0.681692,	-0.690603,	-0.289102,	-0.747368,	-0.221595,	-0.421125,	0.551012,	-0.006378,	-0.849544,	0.541002,	0.840327,	0.368816,	-0.012665,	-0.930601,	-0.639271,	0.822321,	-0.413800,	0.382733,	0.125645,	-0.692740,	-0.891659,	0.936337,	0.954344,	-0.187597,	-0.751274,	-0.339396,	-0.996826,	0.017365,	0.520127,	-0.636647,	-0.182714,	0.389996,	-0.788385,	-0.900632,	-0.537034,	0.036653,	-0.913205,	-0.670949,	0.305704,	-0.380406,	-0.118381,	0.673818,	-0.005585,	0.654653,	0.666067,	0.080660,	0.216102,	-0.447616,	-0.868465,	-0.789422,	0.781549,	-0.672719,	0.866695,	0.861812,	-0.393841,	0.475692,	-0.316691,	0.239967,	0.148045,	0.340922,	-0.943480,	0.889401,	0.864864,	-0.722526,	-0.259804,	0.096713,	0.253151,	-0.273965,	-0.379620,	-0.420576,	0.032563,	0.911740,	0.870235,	0.272439,	0.036351,	0.421735,	0.467574,	-0.975768,	-0.628101,	0.973876,	-0.861385,	0.016633,	-0.586901,	-0.310465,	0.789911,	0.718619,	-0.812494,	0.182653,	-0.509201,	-0.811457,	0.720023,	0.777764,	0.069552,	0.536485,	0.896664,	-0.830866,	-0.614978,	-0.641469,	-0.590075,	0.834956,	0.336711,	-0.042634,	-0.650685,	-0.484115,	-0.324564,	-0.840449,	-0.002167,	-0.925291,	-0.322489,	-0.456648,	0.398968,	-0.954161,	0.744621,	-0.110813,	-0.744621,
